{"learner":{"attributes":{"best_iteration":"99","best_ntree_limit":"100","scikit_learn":"{\"n_estimators\": 100, \"objective\": \"reg:squarederror\", \"max_depth\": null, \"max_leaves\": null, \"max_bin\": null, \"grow_policy\": null, \"learning_rate\": null, \"verbosity\": null, \"booster\": null, \"tree_method\": null, \"gamma\": null, \"min_child_weight\": null, \"max_delta_step\": null, \"subsample\": null, \"sampling_method\": null, \"colsample_bytree\": null, \"colsample_bylevel\": null, \"colsample_bynode\": null, \"reg_alpha\": null, \"reg_lambda\": null, \"scale_pos_weight\": null, \"base_score\": null, \"missing\": NaN, \"num_parallel_tree\": null, \"random_state\": null, \"n_jobs\": null, \"monotone_constraints\": null, \"interaction_constraints\": null, \"importance_type\": null, \"gpu_id\": null, \"validate_parameters\": null, \"predictor\": null, \"enable_categorical\": false, \"feature_types\": null, \"max_cat_to_onehot\": null, \"max_cat_threshold\": null, \"eval_metric\": null, \"early_stopping_rounds\": null, \"callbacks\": null, \"_estimator_type\": \"regressor\"}"},"feature_names":[],"feature_types":[],"gradient_booster":{"model":{"gbtree_model_param":{"num_parallel_tree":"1","num_trees":"100","size_leaf_vector":"0"},"tree_info":[0,0,0,0,0,0,0,0,0,0,0,0,0,0,0,0,0,0,0,0,0,0,0,0,0,0,0,0,0,0,0,0,0,0,0,0,0,0,0,0,0,0,0,0,0,0,0,0,0,0,0,0,0,0,0,0,0,0,0,0,0,0,0,0,0,0,0,0,0,0,0,0,0,0,0,0,0,0,0,0,0,0,0,0,0,0,0,0,0,0,0,0,0,0,0,0,0,0,0,0],"trees":[{"base_weights":[3.5769453E3,1.5786912E3,7.553558E3,1.0251963E3,3.015973E3,6.0828384E3,1.1607193E4,7.819092E2,1.643439E3,2.6909087E3,3.8335264E3,5.133183E3,7.3468735E3,1.1041914E4,1.4499516E4,6.9254376E2,9.8245734E2,1.4110685E3,1.7794131E3,2.4957058E3,2.8945842E3,3.9085823E3,3.3632112E3,4.8231206E3,6.0468833E3,6.971779E3,9.183879E3,1.2292647E4,9.640866E3,1.356351E4,1.5414301E4,5.545018E2,7.1969885E2,9.3271655E2,1.1183218E3,2.083141E3,1.3888629E3,1.7245685E3,1.992208E3,2.407893E3,2.8380293E3,3.043308E3,2.5333215E3,3.7926533E3,4.32517E3,3.164632E3,3.5170427E3,5.177581E3,4.3726533E3,8.623776E3,5.9606484E3,6.482665E3,7.909727E3,8.60758E3,1.0062864E4,1.0781096E4,1.3961289E4,8.700697E3,1.0336908E4,1.473562E4,1.2314782E4,1.5706082E4,1.309794E4,5.2417645E2,6.182967E2,7.5520447E2,6.053934E2,1.204599E3,9.1857874E2,1.15843E3,9.6058545E2,1.0286389E3,2.1680552E3,1.4955448E3,1.260232E3,1.7685012E3,1.4251895E3,2.2133303E3,1.8980812E3,2.4681587E3,2.1620144E3,2.9639463E3,2.604839E3,2.8311948E3,3.1995005E3,2.4481047E3,2.9056995E3,3.966354E3,3.5829458E3,3.7487903E3,4.390633E3,1.99355E3,3.1843237E3,5.423575E3,4.7438306E3,4.619052E3,4.229019E3,4.1115977E3,1.0448881E4,6.2883726E3,5.515802E3,6.8861597E3,5.3228306E3,8.836536E3,6.85442E3,9.544051E3,7.850409E3,1.0647323E4,8.444917E3,1.1552878E4,9.318215E3,1.456553E4,1.353304E4,9.190488E3,7.6981016E3,1.1415741E4,9.500425E3,1.3231E4,1.5995286E4,1.2541798E4,9.700163E3],"categories":[],"categories_nodes":[],"categories_segments":[],"categories_sizes":[],"default_left":[1,1,1,1,1,1,1,1,1,1,1,1,1,1,1,1,1,1,1,1,1,1,1,1,1,1,1,1,1,1,1,1,1,1,1,1,1,1,1,1,1,1,1,1,1,1,0,1,1,1,1,1,1,1,1,1,1,1,1,1,1,0,0,0,0,0,0,0,0,0,0,0,0,0,0,0,0,0,0,0,0,0,0,0,0,0,0,0,0,0,0,0,0,0,0,0,0,0,0,0,0,0,0,0,0,0,0,0,0,0,0,0,0,0,0,0,0,0,0,0,0],"id":0,"left_children":[1,3,5,7,9,11,13,15,17,19,21,23,25,27,29,31,33,35,37,39,41,43,45,47,49,51,53,55,57,59,61,63,65,67,69,71,73,75,77,79,81,83,85,87,89,91,-1,93,95,97,99,101,103,105,107,109,111,113,115,117,119,-1,-1,-1,-1,-1,-1,-1,-1,-1,-1,-1,-1,-1,-1,-1,-1,-1,-1,-1,-1,-1,-1,-1,-1,-1,-1,-1,-1,-1,-1,-1,-1,-1,-1,-1,-1,-1,-1,-1,-1,-1,-1,-1,-1,-1,-1,-1,-1,-1,-1,-1,-1,-1,-1,-1,-1,-1,-1,-1,-1],"loss_changes":[1.08051576E12,7.199457E10,2.7105244E11,9.826832E9,6.6766766E9,4.002205E10,1.963275E10,8.397189E8,5.804728E8,7.087063E8,2.3945216E8,5.3703475E9,9.799074E9,1.7634427E10,1.4828831E9,1.2120883E8,9.662259E7,9.882726E7,1.3236634E8,2.6977894E8,4.654203E8,2.8132966E8,1.9172352E7,2.2502769E9,1.02078874E9,5.4038364E9,1.1412603E9,1.3340967E10,3.0400184E9,1.2602245E9,4.6474854E8,1.0000768E7,1.0954752E8,3.958067E7,2.3357952E7,1.7110912E7,8.869888E7,1.1925914E8,4.529459E7,1.0328064E8,4.7273984E7,1.9744768E8,7.456666E7,1.6176742E8,3.3910784E7,3.86816E6,0E0,8.237056E8,2.025472E8,1.225259E9,6.464307E8,3.6234527E9,3.92115E9,9.681224E8,8.122122E8,3.066069E9,4.598661E8,9.315123E8,2.3668982E9,7.417119E8,1.6501965E8,0E0,0E0,0E0,0E0,0E0,0E0,0E0,0E0,0E0,0E0,0E0,0E0,0E0,0E0,0E0,0E0,0E0,0E0,0E0,0E0,0E0,0E0,0E0,0E0,0E0,0E0,0E0,0E0,0E0,0E0,0E0,0E0,0E0,0E0,0E0,0E0,0E0,0E0,0E0,0E0,0E0,0E0,0E0,0E0,0E0,0E0,0E0,0E0,0E0,0E0,0E0,0E0,0E0,0E0,0E0,0E0,0E0,0E0,0E0,0E0],"parents":[2147483647,0,0,1,1,2,2,3,3,4,4,5,5,6,6,7,7,8,8,9,9,10,10,11,11,12,12,13,13,14,14,15,15,16,16,17,17,18,18,19,19,20,20,21,21,22,22,23,23,24,24,25,25,26,26,27,27,28,28,29,29,30,30,31,31,32,32,33,33,34,34,35,35,36,36,37,37,38,38,39,39,40,40,41,41,42,42,43,43,44,44,45,45,47,47,48,48,49,49,50,50,51,51,52,52,53,53,54,54,55,55,56,56,57,57,58,58,59,59,60,60],"right_children":[2,4,6,8,10,12,14,16,18,20,22,24,26,28,30,32,34,36,38,40,42,44,46,48,50,52,54,56,58,60,62,64,66,68,70,72,74,76,78,80,82,84,86,88,90,92,-1,94,96,98,100,102,104,106,108,110,112,114,116,118,120,-1,-1,-1,-1,-1,-1,-1,-1,-1,-1,-1,-1,-1,-1,-1,-1,-1,-1,-1,-1,-1,-1,-1,-1,-1,-1,-1,-1,-1,-1,-1,-1,-1,-1,-1,-1,-1,-1,-1,-1,-1,-1,-1,-1,-1,-1,-1,-1,-1,-1,-1,-1,-1,-1,-1,-1,-1,-1,-1,-1],"split_conditions":[4.197861E-1,4.024943E-1,6.871658E-1,2.845805E-1,3.3422458E-1,5E-1,8.8548756E-1,1.9E-1,5E-1,5E-1,7.5E-1,6.7687076E-1,7.8571427E-1,5.833334E-1,9.2780745E-1,1.1666667E-1,7.8571427E-1,2.1428573E-1,7.8571427E-1,2.9144385E-1,5.833334E-1,5E-1,5E-1,3.5714287E-1,2.1428573E-1,6.8594104E-1,6.5888894E-1,5E-1,5E-1,5.833334E-1,9.166666E-1,1.1E-1,5.833334E-1,2.1428573E-1,5.833334E-1,7.1428575E-2,2.5E-1,5.833334E-1,4.166667E-1,5.833334E-1,3.5714287E-1,4.6145123E-1,4.8412699E-1,3.5714287E-1,3.6898398E-1,7.1428575E-2,1.0551129E3,5.833334E-1,2.5E-1,7.1428575E-2,3.5714287E-1,5.833334E-1,5.833334E-1,4.166667E-1,5.833334E-1,3.5714287E-1,4.166667E-1,3.5714287E-1,7.5E-1,5E-1,9.166666E-1,4.7118247E3,3.9293823E3,1.5725294E2,1.8548901E2,2.2656136E2,1.8161801E2,3.613797E2,2.7557364E2,3.4752902E2,2.8817566E2,3.0859167E2,6.5041656E2,4.4866345E2,3.7806964E2,5.305504E2,4.2755685E2,6.6399915E2,5.694244E2,7.4044763E2,6.486044E2,8.891839E2,7.814518E2,8.4935846E2,9.5985016E2,7.3443146E2,8.717099E2,1.1899062E3,1.0748838E3,1.1246371E3,1.31719E3,5.9806506E2,9.552972E2,1.6270726E3,1.4231492E3,1.3857156E3,1.2687058E3,1.2334794E3,3.1346643E3,1.8865118E3,1.6547406E3,2.065848E3,1.5968492E3,2.650961E3,2.0563262E3,2.8632153E3,2.3551228E3,3.194197E3,2.533475E3,3.4658635E3,2.7954646E3,4.369659E3,4.059912E3,2.7571465E3,2.3094307E3,3.4247224E3,2.8501274E3,3.9693E3,4.798586E3,3.7625396E3,2.910049E3],"split_indices":[0,7,0,7,0,3,7,6,3,3,2,7,3,2,0,6,3,3,3,0,2,3,3,3,3,7,6,3,3,2,2,6,2,3,2,3,2,2,2,2,3,7,7,3,0,3,0,2,2,3,3,2,2,2,2,3,2,3,2,3,2,0,0,0,0,0,0,0,0,0,0,0,0,0,0,0,0,0,0,0,0,0,0,0,0,0,0,0,0,0,0,0,0,0,0,0,0,0,0,0,0,0,0,0,0,0,0,0,0,0,0,0,0,0,0,0,0,0,0,0,0],"split_type":[0,0,0,0,0,0,0,0,0,0,0,0,0,0,0,0,0,0,0,0,0,0,0,0,0,0,0,0,0,0,0,0,0,0,0,0,0,0,0,0,0,0,0,0,0,0,0,0,0,0,0,0,0,0,0,0,0,0,0,0,0,0,0,0,0,0,0,0,0,0,0,0,0,0,0,0,0,0,0,0,0,0,0,0,0,0,0,0,0,0,0,0,0,0,0,0,0,0,0,0,0,0,0,0,0,0,0,0,0,0,0,0,0,0,0,0,0,0,0,0,0],"sum_hessian":[1.35978E5,9.0502E4,4.5476E4,6.5341E4,2.5161E4,3.3371E4,1.2105E4,4.6891E4,1.845E4,1.8006E4,7.155E3,1.9058E4,1.4313E4,1.013E4,1.975E3,3.244E4,1.4451E4,6.815E3,1.1635E4,9.201E3,8.805E3,6.164E3,9.91E2,1.4234E4,4.824E3,1.189E4,2.423E3,5.348E3,4.782E3,9.84E2,9.91E2,5.336E3,2.7104E4,1.0584E4,3.867E3,2.15E2,6.6E3,9.258E3,2.377E3,7.329E3,1.872E3,6.232E3,2.573E3,4.83E3,1.334E3,4.42E2,5.49E2,7.96E3,6.274E3,1.53E2,4.671E3,7.82E3,4.07E3,1.47E3,9.53E2,2.81E3,2.538E3,2.04E3,2.742E3,5.02E2,4.82E2,8.75E2,1.16E2,3.623E3,1.713E3,2.0676E4,6.428E3,5.19E2,1.0065E4,3.078E3,7.89E2,1.7E1,1.98E2,3.602E3,2.998E3,8.069E3,1.189E3,7.03E2,1.674E3,5.879E3,1.45E3,1.208E3,6.64E2,2.651E3,3.581E3,2.1E3,4.73E2,2.632E3,2.198E3,1.42E2,1.192E3,9E0,4.33E2,5.072E3,2.888E3,2.299E3,3.975E3,4.5E1,1.08E2,2.682E3,1.989E3,5.798E3,2.022E3,2.163E3,1.907E3,6.52E2,8.18E2,6.96E2,2.57E2,1.835E3,9.75E2,1.039E3,1.499E3,1.365E3,6.75E2,1.192E3,1.55E3,2.34E2,2.68E2,4.4E2,4.2E1],"tree_param":{"num_deleted":"0","num_feature":"9","num_nodes":"121","size_leaf_vector":"0"}},{"base_weights":[2.504618E3,1.1053025E3,5.2893164E3,7.1031335E2,2.095963E3,4.254977E3,8.143404E3,5.487895E2,1.1464685E3,1.8751946E3,2.709286E3,3.5931345E3,5.1382163E3,7.6288467E3,9.858564E3,4.8579184E2,6.933078E2,9.833916E2,1.2424176E3,1.774156E3,2.096098E3,2.8576816E3,2.5617869E3,3.3855598E3,4.341229E3,4.875985E3,6.426397E3,8.510956E3,6.624322E3,9.214502E3,1.0737461E4,6.924231E2,4.721123E2,5.9178357E2,7.3578467E2,1.0380215E3,7.879163E2,1.2738286E3,1.0467653E3,1.6479799E3,1.9040703E3,1.9485183E3,2.2498608E3,2.792287E3,3.3976924E3,2.4233071E3,2.7561555E3,5.280407E3,3.3408213E3,4.6058066E3,3.5998784E3,4.5056426E3,5.532089E3,7.154169E3,6.006008E3,7.4443965E3,9.667416E3,6.892313E3,5.2215728E3,9.707721E3,7.623099E3,1.0365085E4,1.1653399E4,4.4215167E2,6.9900543E2,3.5565677E2,5.074098E2,8.4975964E2,5.5590045E2,7.786554E2,6.674491E2,1.4886577E3,1.0206258E3,7.555943E2,8.4257245E2,1.2331681E3,1.4420575E3,1.1206224E3,8.6334424E2,1.2440361E3,1.6773333E3,2.072737E3,1.7433374E3,2.055018E3,1.7485016E3,2.3234775E3,1.8120654E3,2.9318672E3,2.6284663E3,3.082831E3,3.539197E3,2.2667397E3,2.520514E3,2.915212E3,2.4791465E3,1.7311566E3,7.809466E3,3.5670632E3,3.06312E3,4.9805425E3,4.1190186E3,3.4577622E3,4.1101973E3,4.7933125E3,3.6369165E3,5.9026885E3,4.1225977E3,6.7266377E3,8.800085E3,5.65793E3,6.924288E3,7.9886543E3,6.4119595E3,1.0133501E4,9.32645E3,6.175531E3,7.467505E3,4.605069E3,5.487367E3,8.635156E3,1.0648396E4,6.521158E3,8.11785E3,1.0947883E4,9.016164E3],"categories":[],"categories_nodes":[],"categories_segments":[],"categories_sizes":[],"default_left":[1,1,1,1,1,1,1,1,1,1,1,1,1,1,1,1,1,1,1,1,1,1,1,1,1,1,1,1,1,1,1,1,1,1,1,1,1,1,1,1,1,1,1,1,1,1,1,1,1,1,1,1,1,1,1,1,1,1,1,1,1,1,0,0,0,0,0,0,0,0,0,0,0,0,0,0,0,0,0,0,0,0,0,0,0,0,0,0,0,0,0,0,0,0,0,0,0,0,0,0,0,0,0,0,0,0,0,0,0,0,0,0,0,0,0,0,0,0,0,0,0,0,0,0,0],"id":1,"left_children":[1,3,5,7,9,11,13,15,17,19,21,23,25,27,29,31,33,35,37,39,41,43,45,47,49,51,53,55,57,59,61,63,65,67,69,71,73,75,77,79,81,83,85,87,89,91,93,95,97,99,101,103,105,107,109,111,113,115,117,119,121,123,-1,-1,-1,-1,-1,-1,-1,-1,-1,-1,-1,-1,-1,-1,-1,-1,-1,-1,-1,-1,-1,-1,-1,-1,-1,-1,-1,-1,-1,-1,-1,-1,-1,-1,-1,-1,-1,-1,-1,-1,-1,-1,-1,-1,-1,-1,-1,-1,-1,-1,-1,-1,-1,-1,-1,-1,-1,-1,-1,-1,-1,-1,-1],"loss_changes":[5.2985974E11,3.5412345E10,1.3421773E11,4.557871E9,3.4880307E9,1.9495518E10,1.060012E10,4.2957824E8,2.72384E8,4.197499E8,1.4209024E8,2.9490872E9,4.798218E9,8.1923277E9,1.4792458E9,9.26377E7,6.1374464E7,6.840218E7,6.629888E7,2.1037056E8,1.3061325E8,1.1036672E8,8.572314E7,1.2492964E9,7.958528E8,2.8624486E9,6.95894E8,6.037209E9,1.6019292E9,1.19441E9,2.7929805E8,3.051584E6,1.2663142E8,3.8712576E7,2.9072384E7,3.817011E7,1.871872E6,6.3053824E7,1.9732096E7,7.634739E7,1.7019085E8,6.122803E7,8.947814E7,6.164685E7,5.218304E6,2.4923136E7,5.5382016E7,3.0653379E9,9.065431E8,5.3567488E8,6.5130496E7,1.8820956E9,2.212905E9,5.593416E8,4.52096E8,1.3990789E9,2.826076E8,1.4607974E9,8.992563E7,1.1490263E9,1.5805235E8,5.64011E8,0E0,0E0,0E0,0E0,0E0,0E0,0E0,0E0,0E0,0E0,0E0,0E0,0E0,0E0,0E0,0E0,0E0,0E0,0E0,0E0,0E0,0E0,0E0,0E0,0E0,0E0,0E0,0E0,0E0,0E0,0E0,0E0,0E0,0E0,0E0,0E0,0E0,0E0,0E0,0E0,0E0,0E0,0E0,0E0,0E0,0E0,0E0,0E0,0E0,0E0,0E0,0E0,0E0,0E0,0E0,0E0,0E0,0E0,0E0,0E0,0E0,0E0,0E0],"parents":[2147483647,0,0,1,1,2,2,3,3,4,4,5,5,6,6,7,7,8,8,9,9,10,10,11,11,12,12,13,13,14,14,15,15,16,16,17,17,18,18,19,19,20,20,21,21,22,22,23,23,24,24,25,25,26,26,27,27,28,28,29,29,30,30,31,31,32,32,33,33,34,34,35,35,36,36,37,37,38,38,39,39,40,40,41,41,42,42,43,43,44,44,45,45,46,46,47,47,48,48,49,49,50,50,51,51,52,52,53,53,54,54,55,55,56,56,57,57,58,58,59,59,60,60,61,61],"right_children":[2,4,6,8,10,12,14,16,18,20,22,24,26,28,30,32,34,36,38,40,42,44,46,48,50,52,54,56,58,60,62,64,66,68,70,72,74,76,78,80,82,84,86,88,90,92,94,96,98,100,102,104,106,108,110,112,114,116,118,120,122,124,-1,-1,-1,-1,-1,-1,-1,-1,-1,-1,-1,-1,-1,-1,-1,-1,-1,-1,-1,-1,-1,-1,-1,-1,-1,-1,-1,-1,-1,-1,-1,-1,-1,-1,-1,-1,-1,-1,-1,-1,-1,-1,-1,-1,-1,-1,-1,-1,-1,-1,-1,-1,-1,-1,-1,-1,-1,-1,-1,-1,-1,-1,-1],"split_conditions":[4.197861E-1,2.1122995E-1,7.8798187E-1,1.57754E-1,3.449198E-1,5E-1,7.566845E-1,1.9444445E-1,5E-1,2.8074867E-1,4.166667E-1,5.213904E-1,7.8571427E-1,5.833334E-1,8.42246E-1,2.1428573E-1,5E-1,3.5714287E-1,5.833334E-1,5E-1,5E-1,5E-1,5E-1,2.1428573E-1,7.5E-1,5.106952E-1,4.166667E-1,5E-1,9.166666E-1,7.5E-1,5E-1,3.4759358E-2,5E-1,2.1428573E-1,4.166667E-1,2.1428573E-1,1.7914438E-1,7.8571427E-1,7.5E-1,2.647059E-1,4.166667E-1,4.166667E-1,7.5E-1,3.5714287E-1,5.498866E-1,5.544218E-1,7.5E-1,7.1428575E-2,3.5714287E-1,3.5714287E-1,8.2449496E-1,5.833334E-1,7.5E-1,5.26738E-1,6.9E-1,3.5714287E-1,4.166667E-1,5E-1,5E-1,5E-1,5E-1,7.5E-1,3.49602E3,1.3264551E2,2.0970164E2,1.0669704E2,1.5222295E2,2.549279E2,1.6677014E2,2.3359663E2,2.0023474E2,4.4659732E2,3.0618774E2,2.266783E2,2.5277174E2,3.6995044E2,4.3261728E2,3.3618674E2,2.590033E2,3.7321085E2,5.0319998E2,6.2182117E2,5.230012E2,6.1650543E2,5.245505E2,6.970433E2,5.436196E2,8.795602E2,7.885399E2,9.2484937E2,1.0617592E3,6.80022E2,7.561542E2,8.745636E2,7.4374396E2,5.19347E2,2.3428398E3,1.070119E3,9.189361E2,1.4941628E3,1.2357056E3,1.0373287E3,1.2330592E3,1.4379938E3,1.091075E3,1.7708066E3,1.2367793E3,2.0179913E3,2.6400256E3,1.6973792E3,2.0772866E3,2.3965964E3,1.9235879E3,3.0400503E3,2.797935E3,1.8526593E3,2.2402515E3,1.3815208E3,1.6462102E3,2.5905469E3,3.194519E3,1.9563475E3,2.4353552E3,3.284365E3,2.7048494E3],"split_indices":[0,0,7,0,0,3,0,6,3,0,2,0,3,2,0,3,3,3,2,3,3,3,3,3,2,0,2,3,2,2,3,0,3,3,2,3,0,3,2,0,2,2,2,3,7,7,2,3,3,3,8,2,2,0,6,3,2,3,3,3,3,2,0,0,0,0,0,0,0,0,0,0,0,0,0,0,0,0,0,0,0,0,0,0,0,0,0,0,0,0,0,0,0,0,0,0,0,0,0,0,0,0,0,0,0,0,0,0,0,0,0,0,0,0,0,0,0,0,0,0,0,0,0,0,0],"split_type":[0,0,0,0,0,0,0,0,0,0,0,0,0,0,0,0,0,0,0,0,0,0,0,0,0,0,0,0,0,0,0,0,0,0,0,0,0,0,0,0,0,0,0,0,0,0,0,0,0,0,0,0,0,0,0,0,0,0,0,0,0,0,0,0,0,0,0,0,0,0,0,0,0,0,0,0,0,0,0,0,0,0,0,0,0,0,0,0,0,0,0,0,0,0,0,0,0,0,0,0,0,0,0,0,0,0,0,0,0,0,0,0,0,0,0,0,0,0,0,0,0,0,0,0,0],"sum_hessian":[1.35978E5,9.0502E4,4.5476E4,6.4705E4,2.5797E4,3.3381E4,1.2095E4,4.722E4,1.7485E4,1.8972E4,6.825E3,1.9085E4,1.4296E4,9.308E3,2.787E3,3.2888E4,1.4332E4,6.481E3,1.1004E4,1.3024E4,5.948E3,3.393E3,3.432E3,1.4944E4,4.141E3,1.1882E4,2.414E3,4.952E3,4.356E3,1.615E3,1.172E3,2.039E3,3.0849E4,4.232E3,1.01E4,5.062E3,1.419E3,9.477E3,1.527E3,6.614E3,6.41E3,3.042E3,2.906E3,3.032E3,3.61E2,2.012E3,1.42E3,3.42E2,1.4602E4,3.048E3,1.093E3,7.6E3,4.282E3,8.78E2,1.536E3,2.58E3,2.372E3,3.654E3,7.02E2,1.229E3,3.86E2,8.42E2,3.3E2,5.4E1,1.985E3,7.178E3,2.3671E4,5.14E2,3.718E3,6.2E3,3.9E3,1.85E2,4.877E3,9.01E2,5.18E2,7.639E3,1.838E3,1.085E3,4.42E2,4.51E2,6.163E3,3.122E3,3.288E3,1.979E3,1.063E3,2.484E3,4.22E2,1.628E3,1.404E3,1.19E2,2.42E2,7.8E2,1.232E3,8.96E2,5.24E2,1.43E2,1.99E2,8.04E3,6.562E3,1.717E3,1.331E3,8.61E2,2.32E2,5.706E3,1.894E3,3.388E3,8.94E2,7.01E2,1.77E2,1.119E3,4.17E2,1.685E3,8.95E2,9.9E2,1.382E3,1.632E3,2.022E3,2.17E2,4.85E2,5.79E2,6.5E2,1.24E2,2.62E2,5.83E2,2.59E2],"tree_param":{"num_deleted":"0","num_feature":"9","num_nodes":"125","size_leaf_vector":"0"}},{"base_weights":[1.7537911E3,7.85878E2,3.733584E3,5.051426E2,1.5146338E3,2.9863147E3,5.678149E3,3.8494907E2,8.1324524E2,1.3253175E3,1.8952639E3,2.5218047E3,3.5991223E3,5.334213E3,6.992729E3,3.0548032E2,4.5120062E2,7.039673E2,8.759074E2,1.4829579E3,1.2435509E3,1.9776747E3,1.6963875E3,2.2842144E3,2.8207122E3,3.8745203E3,2.9582778E3,5.7384937E3,4.181151E3,6.4598286E3,7.48274E3,2.7643945E2,3.7545526E2,4.191803E2,5.481994E2,7.4485803E2,5.566433E2,8.1412695E2,9.452814E2,1.3655415E3,1.6264484E3,1.2015251E3,1.6172482E3,1.8983019E3,2.3493804E3,1.5659023E3,1.8264497E3,2.3429807E3,1.6149673E3,3.1081123E3,2.5452278E3,3.5177646E3,4.5484653E3,2.6595872E3,3.4409543E3,5.097372E3,6.3895835E3,3.7006143E3,4.5107207E3,7.2062236E3,5.637089E3,7.625806E3,6.102371E3,4.5924515E2,2.589351E2,2.4951184E2,4.264209E2,3.7932547E2,4.9259988E2,5.767097E2,4.494567E2,6.732954E2,8.5184937E2,5.716342E2,4.4244437E2,7.803899E2,9.425859E2,9.123818E2,1.072466E3,1.4818927E3,1.177695E3,1.5963424E3,2.0816543E3,1.2434723E3,9.931151E2,1.7517771E3,1.3160786E3,1.7156461E3,1.9792878E3,2.1529583E3,2.742818E3,1.6005741E3,1.2511041E3,1.8844735E3,1.4360354E3,2.532538E3,2.118635E3,1.707804E3,1.3893041E3,3.4564602E3,2.722732E3,2.398158E3,2.8927783E3,3.3324717E3,4.3202886E3,5.143756E3,4.2130923E3,2.9675046E3,2.189133E3,3.618162E3,2.356305E3,5.524615E3,4.320708E3,6.769788E3,5.577227E3,3.2907227E3,4.0003154E3,4.8625586E3,3.8248613E3,6.3231997E3,7.9097554E3,5.7978306E3,4.3323574E3,7.3212754E3,8.306782E3,2.0715657E3,6.1491685E3],"categories":[],"categories_nodes":[],"categories_segments":[],"categories_sizes":[],"default_left":[1,1,1,1,1,1,1,1,1,1,1,1,1,1,1,1,1,1,1,1,1,1,1,1,1,1,1,1,1,1,1,1,1,1,1,1,1,1,1,1,1,1,1,1,1,1,1,1,1,1,1,1,1,1,1,1,1,1,1,1,1,1,1,0,0,0,0,0,0,0,0,0,0,0,0,0,0,0,0,0,0,0,0,0,0,0,0,0,0,0,0,0,0,0,0,0,0,0,0,0,0,0,0,0,0,0,0,0,0,0,0,0,0,0,0,0,0,0,0,0,0,0,0,0,0,0,0],"id":2,"left_children":[1,3,5,7,9,11,13,15,17,19,21,23,25,27,29,31,33,35,37,39,41,43,45,47,49,51,53,55,57,59,61,63,65,67,69,71,73,75,77,79,81,83,85,87,89,91,93,95,97,99,101,103,105,107,109,111,113,115,117,119,121,123,125,-1,-1,-1,-1,-1,-1,-1,-1,-1,-1,-1,-1,-1,-1,-1,-1,-1,-1,-1,-1,-1,-1,-1,-1,-1,-1,-1,-1,-1,-1,-1,-1,-1,-1,-1,-1,-1,-1,-1,-1,-1,-1,-1,-1,-1,-1,-1,-1,-1,-1,-1,-1,-1,-1,-1,-1,-1,-1,-1,-1,-1,-1,-1,-1],"loss_changes":[2.6056924E11,1.8684215E10,6.4864584E10,2.4413133E9,1.8276557E9,9.173041E9,5.5663985E9,2.4958822E8,1.2607693E8,2.168279E8,1.3487514E8,1.2968755E9,2.4427725E9,4.557439E9,6.219776E8,4.3725056E7,8.010496E7,4.0236544E7,4.96128E7,9.53129E7,1.7359053E8,1.7129062E8,3.919411E7,3.985531E8,6.3522E8,2.321744E9,5.9405926E8,3.0037934E9,3.8794445E8,7.1900774E8,2.1631795E8,4.866675E7,4.047955E7,5.672653E7,1.7803008E7,3.9845376E7,2.263616E6,2.624256E7,2.216448E7,6.797568E7,3.2308736E7,8.663245E7,4.335616E7,6.929613E7,7.477504E7,1.1575296E7,2.5270528E7,3.9446938E8,1.4994432E7,5.236777E8,2.0534067E8,9.316434E8,6.495355E8,3.685499E8,2.9824E8,1.1939185E9,1.0756915E9,1.1520922E8,3.460219E8,3.506811E8,9.925018E7,1.8845696E8,1.178368E7,0E0,0E0,0E0,0E0,0E0,0E0,0E0,0E0,0E0,0E0,0E0,0E0,0E0,0E0,0E0,0E0,0E0,0E0,0E0,0E0,0E0,0E0,0E0,0E0,0E0,0E0,0E0,0E0,0E0,0E0,0E0,0E0,0E0,0E0,0E0,0E0,0E0,0E0,0E0,0E0,0E0,0E0,0E0,0E0,0E0,0E0,0E0,0E0,0E0,0E0,0E0,0E0,0E0,0E0,0E0,0E0,0E0,0E0,0E0,0E0,0E0,0E0,0E0,0E0],"parents":[2147483647,0,0,1,1,2,2,3,3,4,4,5,5,6,6,7,7,8,8,9,9,10,10,11,11,12,12,13,13,14,14,15,15,16,16,17,17,18,18,19,19,20,20,21,21,22,22,23,23,24,24,25,25,26,26,27,27,28,28,29,29,30,30,31,31,32,32,33,33,34,34,35,35,36,36,37,37,38,38,39,39,40,40,41,41,42,42,43,43,44,44,45,45,46,46,47,47,48,48,49,49,50,50,51,51,52,52,53,53,54,54,55,55,56,56,57,57,58,58,59,59,60,60,61,61,62,62],"right_children":[2,4,6,8,10,12,14,16,18,20,22,24,26,28,30,32,34,36,38,40,42,44,46,48,50,52,54,56,58,60,62,64,66,68,70,72,74,76,78,80,82,84,86,88,90,92,94,96,98,100,102,104,106,108,110,112,114,116,118,120,122,124,126,-1,-1,-1,-1,-1,-1,-1,-1,-1,-1,-1,-1,-1,-1,-1,-1,-1,-1,-1,-1,-1,-1,-1,-1,-1,-1,-1,-1,-1,-1,-1,-1,-1,-1,-1,-1,-1,-1,-1,-1,-1,-1,-1,-1,-1,-1,-1,-1,-1,-1,-1,-1,-1,-1,-1,-1,-1,-1,-1,-1,-1,-1,-1,-1],"split_conditions":[5.9070295E-1,2.5401068E-1,7.5666666E-1,3.004535E-1,5.15873E-1,5E-1,8.741497E-1,1.4555556E-1,5E-1,2.5E-1,5.833334E-1,4.5721924E-1,5.833334E-1,7.5E-1,8.208556E-1,7.8571427E-1,7.8571427E-1,3.5714287E-1,3.2555556E-1,5E-1,7.8571427E-1,5E-1,5E-1,7.5E-1,5.833334E-1,6.723356E-1,5.3743315E-1,5E-1,5E-1,5.833334E-1,9.166666E-1,2.1428573E-1,5.0802138E-2,2.1888888E-1,5.833334E-1,3.480726E-1,5.833334E-1,7.8571427E-1,7.8571427E-1,3.5714287E-1,7.8571427E-1,7.5E-1,7.5E-1,5.498866E-1,5.680272E-1,9.166666E-1,9.166666E-1,3.5714287E-1,9.166666E-1,3.5714287E-1,5.4278076E-1,7.8571427E-1,4.166667E-1,7.5E-1,9.166666E-1,3.5714287E-1,5.833334E-1,8.197279E-1,9.166666E-1,5E-1,9.166666E-1,5E-1,8.8E-1,1.3777354E2,7.768053E1,7.485355E1,1.2792628E2,1.13797646E2,1.4777997E2,1.7301292E2,1.3483702E2,2.0198863E2,2.5555482E2,1.7149026E2,1.3273332E2,2.3411697E2,2.827758E2,2.7371454E2,3.217398E2,4.4456784E2,3.533085E2,4.7890274E2,6.2449634E2,3.730417E2,2.9793454E2,5.2553314E2,3.948236E2,5.1469385E2,5.937864E2,6.458875E2,8.2284546E2,4.8017224E2,3.7533124E2,5.653421E2,4.3081064E2,7.597615E2,6.355905E2,5.123412E2,4.1679123E2,1.0369381E3,8.1681964E2,7.194474E2,8.6783356E2,9.997415E2,1.2960867E3,1.5431268E3,1.2639277E3,8.902514E2,6.567399E2,1.0854487E3,7.068915E2,1.6573846E3,1.2962124E3,2.0309365E3,1.6731682E3,9.8721686E2,1.2000947E3,1.4587676E3,1.1474585E3,1.89696E3,2.3729268E3,1.7393492E3,1.2997073E3,2.1963828E3,2.4920347E3,6.214697E2,1.8447506E3],"split_indices":[7,0,6,7,7,3,7,6,3,2,2,0,2,2,0,3,3,3,6,3,3,3,3,2,2,7,0,3,3,2,2,3,0,6,2,7,2,3,3,3,3,2,2,7,7,2,2,3,2,3,0,3,2,2,2,3,2,7,2,3,2,3,6,0,0,0,0,0,0,0,0,0,0,0,0,0,0,0,0,0,0,0,0,0,0,0,0,0,0,0,0,0,0,0,0,0,0,0,0,0,0,0,0,0,0,0,0,0,0,0,0,0,0,0,0,0,0,0,0,0,0,0,0,0,0,0,0],"split_type":[0,0,0,0,0,0,0,0,0,0,0,0,0,0,0,0,0,0,0,0,0,0,0,0,0,0,0,0,0,0,0,0,0,0,0,0,0,0,0,0,0,0,0,0,0,0,0,0,0,0,0,0,0,0,0,0,0,0,0,0,0,0,0,0,0,0,0,0,0,0,0,0,0,0,0,0,0,0,0,0,0,0,0,0,0,0,0,0,0,0,0,0,0,0,0,0,0,0,0,0,0,0,0,0,0,0,0,0,0,0,0,0,0,0,0,0,0,0,0,0,0,0,0,0,0,0,0],"sum_hessian":[1.35978E5,9.1329E4,4.4649E4,6.5932E4,2.5397E4,3.2256E4,1.2393E4,4.7431E4,1.8501E4,1.6964E4,8.433E3,1.8351E4,1.3905E4,9.827E3,2.566E3,2.1567E4,2.5864E4,6.747E3,1.1754E4,5.788E3,1.1176E4,5.956E3,2.477E3,1.0229E4,8.122E3,9.722E3,4.183E3,7.273E3,2.554E3,1.236E3,1.33E3,1.5245E4,6.322E3,1.9449E4,6.415E3,5.278E3,1.469E3,6.224E3,5.53E3,3.189E3,2.599E3,1.005E4,1.126E3,4.913E3,1.043E3,1.243E3,1.234E3,9.401E3,8.28E2,3.97E3,4.152E3,6.361E3,3.361E3,2.588E3,1.595E3,3.669E3,3.604E3,1.044E3,1.51E3,6.44E2,5.92E2,1.201E3,1.29E2,1.33E3,1.3915E4,1.823E3,4.499E3,1.261E4,6.839E3,4.974E3,1.441E3,3.167E3,2.111E3,1.295E3,1.74E2,4.935E3,1.289E3,4.4E3,1.13E3,1.965E3,1.224E3,2.442E3,1.57E2,8.362E3,1.688E3,7.75E2,3.51E2,1.516E3,3.397E3,7E2,3.43E2,1.116E3,1.27E2,1.071E3,1.63E2,5.09E3,4.311E3,5.82E2,2.46E2,2.081E3,1.889E3,2.923E3,1.229E3,5.172E3,1.189E3,1.206E3,2.155E3,1.561E3,1.027E3,1.369E3,2.26E2,2.363E3,1.306E3,2.45E3,1.154E3,4.46E2,5.98E2,9.94E2,5.16E2,2.9E2,3.54E2,5.24E2,6.8E1,8.38E2,3.63E2,2E0,1.27E2],"tree_param":{"num_deleted":"0","num_feature":"9","num_nodes":"127","size_leaf_vector":"0"}},{"base_weights":[1.2280281E3,5.7380695E2,2.6699373E3,3.5992477E2,1.115702E3,2.0931313E3,3.9170918E3,2.654493E2,5.7114734E2,9.5152203E2,1.4038496E3,1.7709921E3,2.5081394E3,3.572785E3,4.7345933E3,2.2175374E2,3.2216068E2,5.3020526E2,6.7216644E2,8.641283E2,1.0458826E3,1.6157231E3,1.311939E3,3.0752458E3,1.7366469E3,3.028008E3,2.2672559E3,4.0304702E3,3.0757417E3,5.1800903E3,4.358821E3,2.4448804E2,1.508855E2,2.9901062E2,3.9280737E2,4.5176434E2,5.767228E2,6.8958246E2,4.3098227E2,9.8589404E2,7.923643E2,1.0943126E3,8.0531134E2,1.5197299E3,2.2246982E3,1.2914352E3,2.0007394E3,4.226586E2,4.7691636E3,2.0015465E3,1.6343843E3,2.7363506E3,3.5214172E3,2.1279548E3,3.003388E3,3.5365142E3,4.5516973E3,2.966435E3,4.2904175E3,4.8550864E3,5.6179805E3,3.9624814E3,5.1809434E3,1.4626503E2,2.602108E2,1.7708679E2,1.0316412E2,3.161242E2,1.9681956E2,4.347453E2,3.4518488E2,5.7622974E2,4.159764E2,6.265838E2,5.084243E2,6.689768E2,8.469871E2,4.2041745E2,2.3495847E3,1.0719703E3,8.478379E2,1.6242578E3,7.823046E2,1.1719496E3,9.82233E2,8.632933E2,5.278534E2,1.6775242E3,1.3432878E3,1.750555E3,2.55311E3,1.3372249E3,1.0757838E3,2.4008235E3,1.5397695E3,4.679512E2,-1.3942896E2,6.199392E3,4.161438E3,2.2582324E3,1.7610101E3,1.494932E3,1.8527313E3,3.2249104E3,2.5416816E3,3.3057244E3,4.2504556E3,2.506372E3,1.8762847E3,2.4648455E3,3.34789E3,3.812849E3,3.0648325E3,4.4223364E3,5.685785E3,3.0965217E3,2.2600896E3,5.041666E3,3.7771946E3,4.491619E3,5.896179E3,6.198605E3,5.422431E3,3.5046848E3,4.2912866E3,5.7274956E3,4.8796484E3],"categories":[],"categories_nodes":[],"categories_segments":[],"categories_sizes":[],"default_left":[1,1,1,1,1,1,1,1,1,1,1,1,1,1,1,1,1,1,1,1,1,1,1,1,1,1,1,1,1,1,1,1,1,1,1,1,1,1,1,1,1,1,1,1,1,1,1,1,1,1,1,1,1,1,1,1,1,1,1,1,1,1,1,0,0,0,0,0,0,0,0,0,0,0,0,0,0,0,0,0,0,0,0,0,0,0,0,0,0,0,0,0,0,0,0,0,0,0,0,0,0,0,0,0,0,0,0,0,0,0,0,0,0,0,0,0,0,0,0,0,0,0,0,0,0,0,0],"id":3,"left_children":[1,3,5,7,9,11,13,15,17,19,21,23,25,27,29,31,33,35,37,39,41,43,45,47,49,51,53,55,57,59,61,63,65,67,69,71,73,75,77,79,81,83,85,87,89,91,93,95,97,99,101,103,105,107,109,111,113,115,117,119,121,123,125,-1,-1,-1,-1,-1,-1,-1,-1,-1,-1,-1,-1,-1,-1,-1,-1,-1,-1,-1,-1,-1,-1,-1,-1,-1,-1,-1,-1,-1,-1,-1,-1,-1,-1,-1,-1,-1,-1,-1,-1,-1,-1,-1,-1,-1,-1,-1,-1,-1,-1,-1,-1,-1,-1,-1,-1,-1,-1,-1,-1,-1,-1,-1,-1],"loss_changes":[1.28271155E11,1.0841045E10,3.052172E10,1.3382533E9,1.2509553E9,3.8753894E9,3.7604393E9,1.1477069E8,8.536883E7,1.3818163E8,1.8494054E8,7.2669594E8,1.5810232E9,2.1366948E9,6.42687E8,4.2141184E7,3.2863744E7,5.357491E7,2.4796672E7,7.57847E7,9.354854E7,1.6626278E8,9.21129E7,1.8761692E9,4.281303E8,5.677138E8,8.82561E8,1.2493373E9,5.891277E8,2.3074816E8,6.839378E8,3.0569088E7,7.93528E6,2.650816E7,9.784E6,2.4245888E7,3.120896E7,1.7499136E7,7.221416E6,3.765248E7,4.4907264E7,5.7531904E7,2.1455552E7,6.762906E7,5.67264E7,6.288384E7,3.1713088E7,4.24043E6,1.958446E8,2.6960486E8,3.4724045E8,2.3204454E8,2.1977702E8,6.8985446E8,2.4722227E8,3.1782093E8,3.2518963E8,3.7543117E8,1.2438426E8,3.7008384E8,5.335859E7,2.0517888E8,8.732467E7,0E0,0E0,0E0,0E0,0E0,0E0,0E0,0E0,0E0,0E0,0E0,0E0,0E0,0E0,0E0,0E0,0E0,0E0,0E0,0E0,0E0,0E0,0E0,0E0,0E0,0E0,0E0,0E0,0E0,0E0,0E0,0E0,0E0,0E0,0E0,0E0,0E0,0E0,0E0,0E0,0E0,0E0,0E0,0E0,0E0,0E0,0E0,0E0,0E0,0E0,0E0,0E0,0E0,0E0,0E0,0E0,0E0,0E0,0E0,0E0,0E0,0E0,0E0,0E0],"parents":[2147483647,0,0,1,1,2,2,3,3,4,4,5,5,6,6,7,7,8,8,9,9,10,10,11,11,12,12,13,13,14,14,15,15,16,16,17,17,18,18,19,19,20,20,21,21,22,22,23,23,24,24,25,25,26,26,27,27,28,28,29,29,30,30,31,31,32,32,33,33,34,34,35,35,36,36,37,37,38,38,39,39,40,40,41,41,42,42,43,43,44,44,45,45,46,46,47,47,48,48,49,49,50,50,51,51,52,52,53,53,54,54,55,55,56,56,57,57,58,58,59,59,60,60,61,61,62,62],"right_children":[2,4,6,8,10,12,14,16,18,20,22,24,26,28,30,32,34,36,38,40,42,44,46,48,50,52,54,56,58,60,62,64,66,68,70,72,74,76,78,80,82,84,86,88,90,92,94,96,98,100,102,104,106,108,110,112,114,116,118,120,122,124,126,-1,-1,-1,-1,-1,-1,-1,-1,-1,-1,-1,-1,-1,-1,-1,-1,-1,-1,-1,-1,-1,-1,-1,-1,-1,-1,-1,-1,-1,-1,-1,-1,-1,-1,-1,-1,-1,-1,-1,-1,-1,-1,-1,-1,-1,-1,-1,-1,-1,-1,-1,-1,-1,-1,-1,-1,-1,-1,-1,-1,-1,-1,-1,-1],"split_conditions":[5.997732E-1,4.387755E-1,7.494331E-1,1.2566845E-1,3.6631018E-1,5E-1,7.299465E-1,1.5666667E-1,1.8983957E-1,5E-1,2.5E-1,2.1428573E-1,4.166667E-1,5.833334E-1,5.833334E-1,5.833334E-1,7.8571427E-1,5E-1,7.5E-1,2.5E-1,7.5E-1,5E-1,7.8571427E-1,7.1428575E-2,2.5E-1,4.6256685E-1,7.8571427E-1,5E-1,7.8571427E-1,5E-1,9.580499E-1,5.0802138E-2,7.5E-1,5.833334E-1,4.166667E-1,8.3333336E-2,4.166667E-1,7.8571427E-1,5.4812837E-1,3.5714287E-1,2.1428573E-1,6.25E-1,9.166666E-1,3.5714287E-1,5.7482994E-1,7.5E-1,5.833334E-1,9.099099E-1,4.166667E-1,3.5714287E-1,7.689394E-1,6.428572E-1,7.8571427E-1,6.428572E-1,4.6256685E-1,3.5714287E-1,7.8571427E-1,9.166666E-1,7.5E-1,9.46712E-1,6.428572E-1,5E-1,3.5714287E-1,4.387951E1,7.806324E1,5.312604E1,3.0949238E1,9.4837265E1,5.904587E1,1.304236E2,1.03555466E2,1.7286893E2,1.2479293E2,1.8797514E2,1.525273E2,2.0069305E2,2.5409615E2,1.2612524E2,7.048754E2,3.2159113E2,2.5435138E2,4.8727737E2,2.3469139E2,3.515849E2,2.946699E2,2.58988E2,1.5835602E2,5.0325726E2,4.0298636E2,5.2516656E2,7.6593304E2,4.0116748E2,3.2273517E2,7.202471E2,4.6193088E2,1.4038536E2,-4.182869E1,1.8598177E3,1.2484314E3,6.774697E2,5.2830304E2,4.484796E2,5.558194E2,9.6747314E2,7.625045E2,9.9171735E2,1.2751367E3,7.519116E2,5.6288544E2,7.394537E2,1.004367E3,1.1438547E3,9.1944977E2,1.3267009E3,1.7057356E3,9.2895654E2,6.780269E2,1.5124999E3,1.1331584E3,1.3474858E3,1.7688539E3,1.8595815E3,1.6267294E3,1.0514055E3,1.287386E3,1.7182488E3,1.4638945E3],"split_indices":[7,7,7,0,0,3,0,6,0,3,2,3,2,2,2,2,3,3,2,2,2,3,3,3,2,0,3,3,3,3,7,0,2,2,2,2,2,3,0,3,3,1,2,3,7,2,2,4,2,3,8,3,3,3,0,3,3,2,2,7,3,3,3,0,0,0,0,0,0,0,0,0,0,0,0,0,0,0,0,0,0,0,0,0,0,0,0,0,0,0,0,0,0,0,0,0,0,0,0,0,0,0,0,0,0,0,0,0,0,0,0,0,0,0,0,0,0,0,0,0,0,0,0,0,0,0,0],"split_type":[0,0,0,0,0,0,0,0,0,0,0,0,0,0,0,0,0,0,0,0,0,0,0,0,0,0,0,0,0,0,0,0,0,0,0,0,0,0,0,0,0,0,0,0,0,0,0,0,0,0,0,0,0,0,0,0,0,0,0,0,0,0,0,0,0,0,0,0,0,0,0,0,0,0,0,0,0,0,0,0,0,0,0,0,0,0,0,0,0,0,0,0,0,0,0,0,0,0,0,0,0,0,0,0,0,0,0,0,0,0,0,0,0,0,0,0,0,0,0,0,0,0,0,0,0,0,0],"sum_hessian":[1.35978E5,9.3539E4,4.2439E4,6.7069E4,2.647E4,2.902E4,1.3419E4,4.6343E4,2.0726E4,1.6865E4,9.605E3,1.6341E4,1.2679E4,9.446E3,3.973E3,2.6178E4,2.0165E4,1.4753E4,5.973E3,8.761E3,8.104E3,2.901E3,6.704E3,4.17E2,1.5924E4,4.011E3,8.668E3,4.914E3,4.532E3,1.812E3,2.161E3,1.9818E4,6.36E3,1.5192E4,4.973E3,5.496E3,9.257E3,5.569E3,4.04E2,3.244E3,5.517E3,6.743E3,1.361E3,2.509E3,3.92E2,6.513E3,1.91E2,1.63E2,2.54E2,4.43E3,1.1494E4,2.525E3,1.486E3,7.292E3,1.376E3,2.527E3,2.387E3,4.161E3,3.71E2,1.047E3,7.65E2,1.462E3,6.99E2,2.736E3,1.7082E4,4.104E3,2.256E3,1.3011E4,2.181E3,2.64E3,2.333E3,1.224E3,4.272E3,5.346E3,3.911E3,4.929E3,6.4E2,4.03E2,1E0,1.994E3,1.25E3,6.4E1,5.453E3,3.978E3,2.765E3,1.124E3,2.37E2,1.32E3,1.189E3,1.63E2,2.29E2,5.368E3,1.145E3,1E2,9.1E1,1.51E2,1.2E1,7.3E1,1.81E2,2.139E3,2.291E3,7.019E3,4.475E3,7.15E2,1.81E3,1.151E3,3.35E2,2.909E3,4.383E3,5.4E2,8.36E2,1.589E3,9.38E2,2.147E3,2.4E2,3.511E3,6.5E2,1.47E2,2.24E2,7.8E2,2.67E2,1.85E2,5.8E2,6.16E2,8.46E2,2.42E2,4.57E2],"tree_param":{"num_deleted":"0","num_feature":"9","num_nodes":"127","size_leaf_vector":"0"}},{"base_weights":[8.5993536E2,3.9851352E2,1.870186E3,2.4779172E2,7.647694E2,1.5234203E3,2.9224817E3,1.8944911E2,4.0482156E2,6.234332E2,9.3249854E2,1.2862957E3,1.8236527E3,3.1279233E3,2.3578833E3,1.6664273E2,2.5724564E2,4.2641287E2,2.7275702E2,6.03328E2,8.557904E2,9.1720245E2,1.4347219E3,1.1982471E3,1.7224227E3,1.6743671E3,2.2905913E3,2.9291216E3,3.6343035E3,2.1384797E3,3.2987002E3,1.4821004E2,2.1756711E2,2.070683E2,2.7943457E2,4.0930112E2,5.477358E2,3.1810062E2,1.7558319E2,7.9355005E2,5.771574E2,9.9613245E2,7.006642E2,1.1493816E3,8.832895E2,1.9808517E3,1.1733943E3,1.3179037E3,1.0406366E3,2.095019E3,1.4111793E3,2.3148965E3,1.5601472E3,2.6680864E3,1.88478E3,2.5954683E3,3.2480085E3,3.4790542E3,4.1765728E3,2.053769E3,2.9818035E3,2.6850005E3,3.9598162E3,2.8607242E2,1.3594447E2,1.260379E2,2.374892E2,3.8853293E2,1.8560936E2,2.8867722E2,1.6178636E2,5.0279126E2,3.8237097E2,7.4898706E2,5.1678925E2,2.8748148E2,4.4640424E2,2.1546402E2,8.1523575E1,7.1739777E2,9.021298E2,6.340022E2,5.1105603E2,1.0953496E3,8.886341E2,7.1610376E2,4.4816953E2,1.0717697E3,1.3686041E3,8.008612E2,9.4503925E2,1.2335208E3,2.3247131E3,1.2079321E3,3.8773276E2,1.3823744E3,9.134474E2,1.351361E3,9.8280615E2,-6.27424E2,2.1318103E3,1.4990038E3,8.3367615E2,2.167358E3,2.9817654E3,1.649966E3,9.247893E2,3.5903906E3,2.5323071E3,2.0105471E3,1.3033772E3,2.9497444E3,2.2238435E3,3.744106E3,3.0421929E3,3.0948113E3,3.873396E3,4.7999062E3,3.8758943E3,2.1823484E3,1.69602E3,3.413953E3,2.3213777E3,3.2998005E3,1.9011687E3,2.8269329E3,4.1220483E3],"categories":[],"categories_nodes":[],"categories_segments":[],"categories_sizes":[],"default_left":[1,1,1,1,1,1,1,1,1,1,1,1,1,1,1,1,1,1,1,1,1,1,1,1,1,1,1,1,1,1,1,1,1,1,1,1,1,1,1,1,1,1,1,1,1,1,1,1,1,1,1,1,1,1,1,1,1,1,1,1,1,1,1,0,0,0,0,0,0,0,0,0,0,0,0,0,0,0,0,0,0,0,0,0,0,0,0,0,0,0,0,0,0,0,0,0,0,0,0,0,0,0,0,0,0,0,0,0,0,0,0,0,0,0,0,0,0,0,0,0,0,0,0,0,0,0,0],"id":4,"left_children":[1,3,5,7,9,11,13,15,17,19,21,23,25,27,29,31,33,35,37,39,41,43,45,47,49,51,53,55,57,59,61,63,65,67,69,71,73,75,77,79,81,83,85,87,89,91,93,95,97,99,101,103,105,107,109,111,113,115,117,119,121,123,125,-1,-1,-1,-1,-1,-1,-1,-1,-1,-1,-1,-1,-1,-1,-1,-1,-1,-1,-1,-1,-1,-1,-1,-1,-1,-1,-1,-1,-1,-1,-1,-1,-1,-1,-1,-1,-1,-1,-1,-1,-1,-1,-1,-1,-1,-1,-1,-1,-1,-1,-1,-1,-1,-1,-1,-1,-1,-1,-1,-1,-1,-1,-1,-1],"loss_changes":[6.33861E10,5.152767E9,1.5552692E10,6.0580326E8,6.445599E8,2.2807265E9,1.2181996E9,7.451443E7,5.0964224E7,6.849229E7,9.427251E7,6.861107E8,9.824502E8,7.689421E8,5.756641E8,3.383981E7,1.3454144E7,3.1736576E7,1.1047792E7,6.724096E7,2.4860928E7,9.408512E7,4.991085E7,2.79894E8,3.4587546E8,7.8104166E8,5.1965133E8,5.837783E8,1.689129E8,1.5761306E8,2.0521472E8,4.476819E7,1.7453312E7,1.4433168E7,9.100352E6,3.3786624E7,1.1446144E7,6.616992E6,2.998378E6,1.2929856E7,4.460877E7,5.57536E6,1.86608E6,2.466688E7,5.2905984E7,2.7198848E7,6.315392E6,2.1970125E8,1.1441152E8,1.3825946E8,8.203059E7,1.5302554E8,5.1807027E8,2.1281587E8,1.1832269E8,3.5220685E8,2.787922E8,2.4560026E8,7.135949E7,9.225216E7,5.115328E7,1.2817651E8,3.5030016E7,0E0,0E0,0E0,0E0,0E0,0E0,0E0,0E0,0E0,0E0,0E0,0E0,0E0,0E0,0E0,0E0,0E0,0E0,0E0,0E0,0E0,0E0,0E0,0E0,0E0,0E0,0E0,0E0,0E0,0E0,0E0,0E0,0E0,0E0,0E0,0E0,0E0,0E0,0E0,0E0,0E0,0E0,0E0,0E0,0E0,0E0,0E0,0E0,0E0,0E0,0E0,0E0,0E0,0E0,0E0,0E0,0E0,0E0,0E0,0E0,0E0,0E0,0E0,0E0],"parents":[2147483647,0,0,1,1,2,2,3,3,4,4,5,5,6,6,7,7,8,8,9,9,10,10,11,11,12,12,13,13,14,14,15,15,16,16,17,17,18,18,19,19,20,20,21,21,22,22,23,23,24,24,25,25,26,26,27,27,28,28,29,29,30,30,31,31,32,32,33,33,34,34,35,35,36,36,37,37,38,38,39,39,40,40,41,41,42,42,43,43,44,44,45,45,46,46,47,47,48,48,49,49,50,50,51,51,52,52,53,53,54,54,55,55,56,56,57,57,58,58,59,59,60,60,61,61,62,62],"right_children":[2,4,6,8,10,12,14,16,18,20,22,24,26,28,30,32,34,36,38,40,42,44,46,48,50,52,54,56,58,60,62,64,66,68,70,72,74,76,78,80,82,84,86,88,90,92,94,96,98,100,102,104,106,108,110,112,114,116,118,120,122,124,126,-1,-1,-1,-1,-1,-1,-1,-1,-1,-1,-1,-1,-1,-1,-1,-1,-1,-1,-1,-1,-1,-1,-1,-1,-1,-1,-1,-1,-1,-1,-1,-1,-1,-1,-1,-1,-1,-1,-1,-1,-1,-1,-1,-1,-1,-1,-1,-1,-1,-1,-1,-1,-1,-1,-1,-1,-1,-1,-1,-1,-1,-1,-1,-1],"split_conditions":[5.788889E-1,6.0227275E-1,8.0839E-1,2.922222E-1,4.9319726E-1,5E-1,7.5E-1,2.1222222E-1,5.833334E-1,7.8571427E-1,7.8571427E-1,7.1088433E-1,7.1541953E-1,9.0782833E-1,8.15508E-1,7.8571427E-1,5E-1,7.8571427E-1,7.5E-1,8.3333336E-2,5.833334E-1,8.3333336E-2,4.166667E-1,3.5714287E-1,5.833334E-1,2.5E-1,5.833334E-1,5E-1,9.411111E-1,7.8571427E-1,5E-1,2.1428573E-1,4.5454547E-2,2.1428573E-1,7.5E-1,8.3333336E-2,2.5E-1,7.8571427E-1,9.166666E-1,5E-1,6.25E-1,4.166667E-1,9.166666E-1,7.2853535E-1,5.544218E-1,5.188889E-1,9.166666E-1,7.5E-1,8.3333336E-2,7.1428575E-2,9.166666E-1,7.8571427E-1,7.5E-1,2.5E-1,9.166666E-1,4.166667E-1,4.166667E-1,5E-1,3.5714287E-1,9.166666E-1,9.166666E-1,3.5714287E-1,8.922222E-1,8.582173E1,4.0783344E1,3.781137E1,7.1246765E1,1.1655988E2,5.568281E1,8.6603165E1,4.853591E1,1.5083739E2,1.14711296E2,2.2469612E2,1.5503677E2,8.6244446E1,1.3392128E2,6.4639206E1,2.4457073E1,2.1521935E2,2.7063895E2,1.9020067E2,1.5331682E2,3.286049E2,2.6659024E2,2.1483113E2,1.3445087E2,3.215309E2,4.1058127E2,2.4025838E2,2.8351178E2,3.7005624E2,6.9741394E2,3.6237964E2,1.1631983E2,4.1471234E2,2.7403424E2,4.054083E2,2.9484186E2,-1.882272E2,6.395431E2,4.4970114E2,2.5010286E2,6.502074E2,8.9452966E2,4.949898E2,2.774368E2,1.0771172E3,7.5969214E2,6.031642E2,3.9101318E2,8.8492334E2,6.671531E2,1.1232318E3,9.126579E2,9.284434E2,1.1620188E3,1.4399719E3,1.1627683E3,6.547045E2,5.0880603E2,1.0241859E3,6.964133E2,9.899402E2,5.7035065E2,8.480799E2,1.2366145E3],"split_indices":[6,8,7,6,7,3,2,6,2,3,3,7,7,8,0,3,3,3,2,2,2,2,2,3,2,2,2,3,6,3,3,3,0,3,2,2,2,3,2,3,1,2,2,8,7,6,2,2,2,3,2,3,2,2,2,2,2,3,3,2,2,3,6,0,0,0,0,0,0,0,0,0,0,0,0,0,0,0,0,0,0,0,0,0,0,0,0,0,0,0,0,0,0,0,0,0,0,0,0,0,0,0,0,0,0,0,0,0,0,0,0,0,0,0,0,0,0,0,0,0,0,0,0,0,0,0,0],"split_type":[0,0,0,0,0,0,0,0,0,0,0,0,0,0,0,0,0,0,0,0,0,0,0,0,0,0,0,0,0,0,0,0,0,0,0,0,0,0,0,0,0,0,0,0,0,0,0,0,0,0,0,0,0,0,0,0,0,0,0,0,0,0,0,0,0,0,0,0,0,0,0,0,0,0,0,0,0,0,0,0,0,0,0,0,0,0,0,0,0,0,0,0,0,0,0,0,0,0,0,0,0,0,0,0,0,0,0,0,0,0,0,0,0,0,0,0,0,0,0,0,0,0,0,0,0,0,0],"sum_hessian":[1.35978E5,9.3345E4,4.2633E4,6.6132E4,2.7213E4,3.2068E4,1.0565E4,4.8219E4,1.7913E4,1.4771E4,1.2442E4,1.792E4,1.4148E4,7.743E3,2.822E3,3.6084E4,1.2135E4,1.5394E4,2.519E3,1.3598E4,1.173E3,1.2077E4,3.65E2,1.4913E4,3.007E3,1.0724E4,3.424E3,5.565E3,2.178E3,2.291E3,5.31E2,2.6497E4,9.587E3,3.724E3,8.411E3,1.3495E4,1.899E3,1.716E3,8.03E2,1.641E3,1.1957E4,6.13E2,5.6E2,1.535E3,1.0542E4,1.16E2,2.49E2,8.473E3,6.44E3,1.366E3,1.641E3,1.62E3,9.104E3,1.771E3,1.653E3,2.724E3,2.841E3,1.699E3,4.79E2,2.085E3,2.06E2,2.78E2,2.53E2,2.163E3,2.4334E4,1.715E3,7.872E3,3.92E2,3.332E3,7.797E3,6.14E2,3.014E3,1.0481E4,2.5E2,1.649E3,1.388E3,3.28E2,5.63E2,2.4E2,9.69E2,6.72E2,6.424E3,5.533E3,3.14E2,2.99E2,5.26E2,3.4E1,1.138E3,3.97E2,4.521E3,6.021E3,3.8E1,7.8E1,2.38E2,1.1E1,7.306E3,1.167E3,1.007E3,5.433E3,1.8E1,1.348E3,1.423E3,2.18E2,1.33E3,2.9E2,7.975E3,1.129E3,2.24E2,1.547E3,1.357E3,2.96E2,1.391E3,1.333E3,8.28E2,2.013E3,8.65E2,8.34E2,1.51E2,3.28E2,1.53E3,5.55E2,1.22E2,8.4E1,1.54E2,1.24E2,3.4E1,2.19E2],"tree_param":{"num_deleted":"0","num_feature":"9","num_nodes":"127","size_leaf_vector":"0"}},{"base_weights":[6.0216486E2,3.2422366E2,1.4439749E3,1.8827527E2,6.398022E2,1.1706884E3,2.0644565E3,1.3453403E2,3.1493604E2,5.084586E2,7.572654E2,1.1071791E3,1.8894883E3,1.8487219E3,2.3289287E3,8.484101E1,1.5664218E2,3.4776746E2,2.6556503E2,5.442554E2,4.0253708E2,8.868031E2,6.178854E2,1.01575525E3,1.3750223E3,1.9771157E3,8.681892E2,2.450962E3,1.7301897E3,2.5778677E3,2.117444E3,1.1335607E2,5.3962284E1,1.823402E2,1.2162916E2,3.0163556E2,3.959329E2,2.3942116E2,3.635074E2,4.9524213E2,6.138655E2,4.3324567E2,1.6731308E2,7.754789E2,1.235829E3,6.6943774E2,4.1864822E2,1.1296504E3,8.367006E2,1.5326691E3,9.3531824E2,2.461266E3,1.8106348E3,2.20015E2,1.585327E3,2.184079E3,2.9880452E3,1.6558107E3,2.644831E3,2.5380908E3,4.113249E3,1.9431025E3,2.5490195E3,3.1689524E1,1.2727797E2,3.1656952E1,1.0179329E2,1.2397568E2,2.117587E2,1.00752655E2,1.7317073E2,2.5382802E2,3.3401947E2,3.4901108E2,4.4210245E2,5.794395E2,2.3028899E2,3.3451233E2,5.6369745E2,5.649881E2,3.8093655E2,5.716184E2,7.4958453E2,3.5247784E2,4.922129E2,1.26253815E2,3.4606387E2,8.721711E2,6.688656E2,1.640685E3,1.1020963E3,6.4505676E2,1.065546E3,5.733956E2,3.129517E2,2.20489E3,1.106248E3,8.833498E2,3.3699313E2,1.9511754E3,1.4451726E3,7.302913E2,1.073056E3,2.2825376E3,3.0628574E3,1.7500995E3,3.1063967E3,5.060033E2,-3.1024E2,2.0824634E3,1.3810508E3,2.503362E3,1.7581646E3,4.0884302E3,2.783443E3,1.7854926E3,1.3314753E3,3.0640737E3,1.968286E3,2.4200212E3,2.9953665E3,4.2185063E3,-6.2744434E2,-1.6374841E3,1.9620946E3,2.2775845E3,3.0491213E3],"categories":[],"categories_nodes":[],"categories_segments":[],"categories_sizes":[],"default_left":[1,1,1,1,1,1,1,1,1,1,1,1,1,1,1,1,1,1,1,1,1,1,1,1,1,1,1,1,1,1,1,1,1,1,1,1,1,1,1,1,1,1,1,1,1,1,1,1,1,1,1,1,1,1,1,1,1,1,1,1,1,1,1,0,0,0,0,0,0,0,0,0,0,0,0,0,0,0,0,0,0,0,0,0,0,0,0,0,0,0,0,0,0,0,0,0,0,0,0,0,0,0,0,0,0,0,0,0,0,0,0,0,0,0,0,0,0,0,0,0,0,0,0,0,0,0,0],"id":5,"left_children":[1,3,5,7,9,11,13,15,17,19,21,23,25,27,29,31,33,35,37,39,41,43,45,47,49,51,53,55,57,59,61,63,65,67,69,71,73,75,77,79,81,83,85,87,89,91,93,95,97,99,101,103,105,107,109,111,113,115,117,119,121,123,125,-1,-1,-1,-1,-1,-1,-1,-1,-1,-1,-1,-1,-1,-1,-1,-1,-1,-1,-1,-1,-1,-1,-1,-1,-1,-1,-1,-1,-1,-1,-1,-1,-1,-1,-1,-1,-1,-1,-1,-1,-1,-1,-1,-1,-1,-1,-1,-1,-1,-1,-1,-1,-1,-1,-1,-1,-1,-1,-1,-1,-1,-1,-1,-1],"loss_changes":[3.181504E10,4.385706E9,5.720883E9,4.8631117E8,4.744745E8,1.06768384E9,5.8445414E8,5.510125E7,3.4407296E7,5.488845E7,2.9277286E8,5.2591E8,1.6841114E8,4.0179712E8,2.3840154E8,1.3596864E7,3.1216768E7,2.8277376E7,2.1690816E7,3.6748544E7,2.6473472E7,3.26123E8,8.013235E7,3.2653414E8,3.7822157E8,1.36597E8,7.0305384E7,1.2720845E8,3.191726E8,1.1921818E8,1.8390426E8,9.12684E6,7.912006E6,3.434976E7,1.5798784E7,1.0028032E7,1.3383296E7,2.072048E7,1.0201536E7,5.0632576E7,2.5275904E7,1.5305152E7,3.082882E6,6.5237504E7,1.083177E8,5.936307E7,2.618688E7,2.4446054E8,1.4532608E8,1.4474957E8,4.0107904E7,4.0856064E7,9.700531E7,1.2440367E7,4.435856E6,8.086272E7,5.7738496E7,1.8273075E8,9.494349E7,1.0461901E8,2.859456E7,1.250729E8,9.065626E7,0E0,0E0,0E0,0E0,0E0,0E0,0E0,0E0,0E0,0E0,0E0,0E0,0E0,0E0,0E0,0E0,0E0,0E0,0E0,0E0,0E0,0E0,0E0,0E0,0E0,0E0,0E0,0E0,0E0,0E0,0E0,0E0,0E0,0E0,0E0,0E0,0E0,0E0,0E0,0E0,0E0,0E0,0E0,0E0,0E0,0E0,0E0,0E0,0E0,0E0,0E0,0E0,0E0,0E0,0E0,0E0,0E0,0E0,0E0,0E0,0E0,0E0,0E0,0E0],"parents":[2147483647,0,0,1,1,2,2,3,3,4,4,5,5,6,6,7,7,8,8,9,9,10,10,11,11,12,12,13,13,14,14,15,15,16,16,17,17,18,18,19,19,20,20,21,21,22,22,23,23,24,24,25,25,26,26,27,27,28,28,29,29,30,30,31,31,32,32,33,33,34,34,35,35,36,36,37,37,38,38,39,39,40,40,41,41,42,42,43,43,44,44,45,45,46,46,47,47,48,48,49,49,50,50,51,51,52,52,53,53,54,54,55,55,56,56,57,57,58,58,59,59,60,60,61,61,62,62],"right_children":[2,4,6,8,10,12,14,16,18,20,22,24,26,28,30,32,34,36,38,40,42,44,46,48,50,52,54,56,58,60,62,64,66,68,70,72,74,76,78,80,82,84,86,88,90,92,94,96,98,100,102,104,106,108,110,112,114,116,118,120,122,124,126,-1,-1,-1,-1,-1,-1,-1,-1,-1,-1,-1,-1,-1,-1,-1,-1,-1,-1,-1,-1,-1,-1,-1,-1,-1,-1,-1,-1,-1,-1,-1,-1,-1,-1,-1,-1,-1,-1,-1,-1,-1,-1,-1,-1,-1,-1,-1,-1,-1,-1,-1,-1,-1,-1,-1,-1,-1,-1,-1,-1,-1,-1,-1,-1],"split_conditions":[6.247165E-1,2.7005348E-1,7.855556E-1,1.6310161E-1,7.007576E-1,7.8571427E-1,7.1925133E-1,1.3444445E-1,4.166667E-1,5.833334E-1,4.166667E-1,5.4812837E-1,7.5E-1,2.5E-1,5.833334E-1,4.166667E-1,4.166667E-1,3.594104E-1,7.8571427E-1,5E-1,9.166666E-1,5E-1,7.5E-1,5.833334E-1,7.5E-1,9.2857146E-1,7.2444445E-1,5E-1,7.8571427E-1,7.8571427E-1,9.2780745E-1,6.333333E-2,7.8571427E-1,5E-1,7.8571427E-1,5E-1,5E-1,2.1428573E-1,4.2555556E-1,3.5714287E-1,3.0213904E-1,5E-1,6.7550504E-1,3.5714287E-1,6.428572E-1,7.8571427E-1,4.197861E-1,2.1428573E-1,9.166666E-1,2.5E-1,5.855615E-1,7.244898E-1,6.657754E-1,9.166666E-1,9.2857146E-1,3.5714287E-1,6.428572E-1,7.5E-1,7.5E-1,9.126984E-1,8.663101E-1,7.1428575E-2,5E-1,9.506858E0,3.818339E1,9.497086E0,3.0537989E1,3.7192703E1,6.352761E1,3.0225798E1,5.195122E1,7.614841E1,1.0020585E2,1.0470333E2,1.3263074E2,1.7383186E2,6.90867E1,1.0035371E2,1.6910924E2,1.6949643E2,1.1428097E2,1.7148553E2,2.2487537E2,1.05743355E2,1.4766388E2,3.7876144E1,1.0381917E2,2.6165134E2,2.0065968E2,4.9220554E2,3.306289E2,1.9351704E2,3.1966382E2,1.7201869E2,9.388551E1,6.61467E2,3.3187442E2,2.6500494E2,1.01097946E2,5.8535266E2,4.335518E2,2.190874E2,3.219168E2,6.847613E2,9.1885724E2,5.2502985E2,9.3191907E2,1.51801E2,-9.3072E1,6.24739E2,4.1431525E2,7.5100867E2,5.274494E2,1.226529E3,8.3503296E2,5.3564777E2,3.9944263E2,9.1922217E2,5.9048584E2,7.260064E2,8.9861E2,1.265552E3,-1.882333E2,-4.9124527E2,5.886284E2,6.832754E2,9.1473645E2],"split_indices":[7,0,6,0,8,3,0,6,2,2,2,0,2,2,2,2,2,7,3,3,2,3,2,2,2,3,6,3,3,3,0,6,3,3,3,3,3,3,6,3,0,3,8,3,3,3,0,3,2,2,0,7,0,2,3,3,3,2,2,7,0,3,3,0,0,0,0,0,0,0,0,0,0,0,0,0,0,0,0,0,0,0,0,0,0,0,0,0,0,0,0,0,0,0,0,0,0,0,0,0,0,0,0,0,0,0,0,0,0,0,0,0,0,0,0,0,0,0,0,0,0,0,0,0,0,0,0],"split_type":[0,0,0,0,0,0,0,0,0,0,0,0,0,0,0,0,0,0,0,0,0,0,0,0,0,0,0,0,0,0,0,0,0,0,0,0,0,0,0,0,0,0,0,0,0,0,0,0,0,0,0,0,0,0,0,0,0,0,0,0,0,0,0,0,0,0,0,0,0,0,0,0,0,0,0,0,0,0,0,0,0,0,0,0,0,0,0,0,0,0,0,0,0,0,0,0,0,0,0,0,0,0,0,0,0,0,0,0,0,0,0,0,0,0,0,0,0,0,0,0,0,0,0,0,0,0,0],"sum_hessian":[1.35978E5,1.02227E5,3.3751E4,7.1449E4,3.0778E4,2.3433E4,1.0318E4,5.0166E4,2.1283E4,1.4533E4,1.6245E4,2.1533E4,1.9E3,5.687E3,4.631E3,1.5448E4,3.4718E4,1.2779E4,8.504E3,1.0859E4,3.674E3,8.417E3,7.828E3,1.6057E4,5.476E3,1.749E3,1.51E2,9.32E2,4.755E3,2.122E3,2.509E3,8.03E3,7.418E3,2.002E4,1.4698E4,6.531E3,6.248E3,6.715E3,1.789E3,6.377E3,4.482E3,3.249E3,4.25E2,6.384E3,2.033E3,6.217E3,1.611E3,9.811E3,6.246E3,4.029E3,1.447E3,4.44E2,1.305E3,8E1,7.1E1,6.26E2,3.06E2,4.4E3,3.55E2,2.071E3,5.1E1,1.791E3,7.18E2,1.17E3,6.86E3,5.06E3,2.358E3,6.711E3,1.3309E4,1.0463E4,4.235E3,2.641E3,3.89E3,3.103E3,3.145E3,1.74E2,6.541E3,1.565E3,2.24E2,3.958E3,2.419E3,3.422E3,1.06E3,1.374E3,1.875E3,3.47E2,7.8E1,3.344E3,3.04E3,5.02E2,1.531E3,5.859E3,3.58E2,6.52E2,9.59E2,2.07E2,9.604E3,5.712E3,5.34E2,6.93E2,3.336E3,5.84E2,8.63E2,3.46E2,9.8E1,1.249E3,5.6E1,5.2E1,2.8E1,1.8E1,5.3E1,3.55E2,2.71E2,4.5E1,2.61E2,3.14E3,1.26E3,2.17E2,1.38E2,1.651E3,4.2E2,5E1,1E0,9E0,1.782E3,4.69E2,2.49E2],"tree_param":{"num_deleted":"0","num_feature":"9","num_nodes":"127","size_leaf_vector":"0"}},{"base_weights":[4.2167422E2,2.206874E2,1.0058225E3,1.2462129E2,4.249327E2,8.3271545E2,1.4901631E3,8.531546E1,1.9216663E2,3.4271378E2,5.1317175E2,6.679768E2,1.0246918E3,1.6024982E3,1.1775018E3,9.238121E1,5.532131E0,1.9982555E2,6.3646736E1,3.8335336E2,2.9200864E2,4.9431482E2,9.3483203E2,-7.8138184E2,6.835261E2,1.3028834E3,8.876052E2,1.416756E3,1.798527E3,1.01983405E3,1.5033351E3,1.8971721E2,8.6740585E1,2.0507055E1,-5.2741203E1,1.6472276E2,2.2720119E2,9.56397E1,-1.365603E1,3.4155737E2,4.462991E2,3.0415247E2,1.0128409E2,7.287931E2,4.6046973E2,1.2469323E3,6.914474E2,-6.180967E2,-3.21641E3,2.553063E3,6.5287274E2,1.8180945E3,1.1531613E3,7.3561334E2,1.3419875E3,1.6814794E3,9.373917E2,2.2197961E3,1.6357402E3,1.2173135E3,8.432482E2,1.1323284E3,1.8152136E3,1.4618118E2,2.472552E2,2.8909357E1,1.05416435E2,9.2000626E1,1.4978688E1,-5.7765774E1,2.257234E1,1.5215146E2,2.2706284E2,5.3825055E2,2.2331177E2,6.1641785E1,1.6854259E2,-2.354392E1,8.584246E1,3.8843402E2,2.5736926E2,5.753722E2,3.9026813E2,7.8910205E2,3.0062646E2,1.6811176E1,1.712073E2,6.542793E2,1.1512728E3,-4.6271863E2,4.6555167E2,1.9812046E3,1.0750935E3,7.401471E2,-5.33181E2,-5.5245325E2,-1.6239521E3,-3.7998022E3,-1.5372188E3,2.7369907E3,8.586807E2,8.165461E2,5.482473E2,1.4687783E3,2.0614597E3,1.0309991E3,1.5754243E3,1.405317E3,7.0278357E2,1.483577E3,8.7765955E2,1.5008163E3,2.2851106E3,7.0200525E2,1.6082563E3,1.9152703E3,2.4886104E3,1.5283744E3,2.4499045E3,9.3546857E2,1.391939E3,2.29075E3,8.237077E2,1.4716667E3,6.294269E2,1.9754064E3,1.2645205E3],"categories":[],"categories_nodes":[],"categories_segments":[],"categories_sizes":[],"default_left":[1,1,1,1,1,1,1,1,1,1,1,1,1,1,1,1,1,1,1,1,1,1,1,1,1,1,1,1,1,1,1,1,1,1,1,1,1,1,1,1,1,1,1,1,1,1,1,1,1,1,1,1,1,1,1,1,1,1,1,1,1,1,1,0,0,0,0,0,0,0,0,0,0,0,0,0,0,0,0,0,0,0,0,0,0,0,0,0,0,0,0,0,0,0,0,0,0,0,0,0,0,0,0,0,0,0,0,0,0,0,0,0,0,0,0,0,0,0,0,0,0,0,0,0,0,0,0],"id":6,"left_children":[1,3,5,7,9,11,13,15,17,19,21,23,25,27,29,31,33,35,37,39,41,43,45,47,49,51,53,55,57,59,61,63,65,67,69,71,73,75,77,79,81,83,85,87,89,91,93,95,97,99,101,103,105,107,109,111,113,115,117,119,121,123,125,-1,-1,-1,-1,-1,-1,-1,-1,-1,-1,-1,-1,-1,-1,-1,-1,-1,-1,-1,-1,-1,-1,-1,-1,-1,-1,-1,-1,-1,-1,-1,-1,-1,-1,-1,-1,-1,-1,-1,-1,-1,-1,-1,-1,-1,-1,-1,-1,-1,-1,-1,-1,-1,-1,-1,-1,-1,-1,-1,-1,-1,-1,-1,-1],"loss_changes":[1.5964545E10,1.9850291E9,2.917245E9,1.8266637E8,2.3461478E8,8.103936E8,3.1997747E8,2.4521184E7,2.4901504E7,3.4416256E7,1.2364058E8,3.116508E8,4.5045453E8,2.4282317E8,1.2309888E8,2.192304E7,3.0902228E6,2.291712E7,3.5255385E6,2.4309376E7,1.7245184E7,1.1824333E8,4.980339E7,5.645972E7,7.810985E8,2.9928346E8,5.47092E8,4.3812864E8,2.2095872E8,5.609395E7,8.923904E7,5.444736E6,4.07936E7,1.1120208E6,2.7527862E5,8.170752E6,1.6112832E7,2.487985E6,4.1326212E5,2.1968576E7,2.6584832E7,1.1752832E7,2.6432865E6,5.8524544E7,6.148736E7,3.458739E7,2.2878528E7,8.280716E6,2.975528E6,6.6211456E7,2.2970368E8,7.161242E7,1.5467725E8,1.2980838E8,1.2939699E8,2.3986995E8,1.9389286E8,6.972672E7,2.030761E8,3.664448E7,2.2664448E7,6.1021024E7,3.517069E7,0E0,0E0,0E0,0E0,0E0,0E0,0E0,0E0,0E0,0E0,0E0,0E0,0E0,0E0,0E0,0E0,0E0,0E0,0E0,0E0,0E0,0E0,0E0,0E0,0E0,0E0,0E0,0E0,0E0,0E0,0E0,0E0,0E0,0E0,0E0,0E0,0E0,0E0,0E0,0E0,0E0,0E0,0E0,0E0,0E0,0E0,0E0,0E0,0E0,0E0,0E0,0E0,0E0,0E0,0E0,0E0,0E0,0E0,0E0,0E0,0E0,0E0,0E0,0E0],"parents":[2147483647,0,0,1,1,2,2,3,3,4,4,5,5,6,6,7,7,8,8,9,9,10,10,11,11,12,12,13,13,14,14,15,15,16,16,17,17,18,18,19,19,20,20,21,21,22,22,23,23,24,24,25,25,26,26,27,27,28,28,29,29,30,30,31,31,32,32,33,33,34,34,35,35,36,36,37,37,38,38,39,39,40,40,41,41,42,42,43,43,44,44,45,45,46,46,47,47,48,48,49,49,50,50,51,51,52,52,53,53,54,54,55,55,56,56,57,57,58,58,59,59,60,60,61,61,62,62],"right_children":[2,4,6,8,10,12,14,16,18,20,22,24,26,28,30,32,34,36,38,40,42,44,46,48,50,52,54,56,58,60,62,64,66,68,70,72,74,76,78,80,82,84,86,88,90,92,94,96,98,100,102,104,106,108,110,112,114,116,118,120,122,124,126,-1,-1,-1,-1,-1,-1,-1,-1,-1,-1,-1,-1,-1,-1,-1,-1,-1,-1,-1,-1,-1,-1,-1,-1,-1,-1,-1,-1,-1,-1,-1,-1,-1,-1,-1,-1,-1,-1,-1,-1,-1,-1,-1,-1,-1,-1,-1,-1,-1,-1,-1,-1,-1,-1,-1,-1,-1,-1,-1,-1,-1,-1,-1,-1],"split_conditions":[4.3582886E-1,4.4784582E-1,8.174603E-1,2.3444444E-1,5.498866E-1,5E-1,7.5E-1,7.5E-1,7.5E-1,4.166667E-1,7.8571427E-1,7.1428575E-2,6.428572E-1,5E-1,9.179293E-1,2.1428573E-1,9.166666E-1,3.344671E-1,9.166666E-1,5E-1,9.166666E-1,8.3333336E-2,4.166667E-1,8.0045354E-1,2.1428573E-1,4.166667E-1,7.8571427E-1,3.5714287E-1,6.428572E-1,6.25E-1,5E-1,1.4555556E-1,5E-1,2.1428573E-1,4.861111E-1,7.8571427E-1,2.1428573E-1,5.7196975E-1,7.8571427E-1,3.5714287E-1,6.428572E-1,2.1428573E-1,5E-1,5E-1,7.1428575E-2,9.2857146E-1,9.166666E-1,9.684685E-1,7.5E-1,7.5E-1,4.166667E-1,4.6256685E-1,8.2449496E-1,8.3333336E-2,5.833334E-1,7.887701E-1,9.197861E-1,7.085562E-1,7.8571427E-1,5E-1,2.1428573E-1,3.5714287E-1,9.166666E-1,4.3854355E1,7.417657E1,8.672808E0,3.1624931E1,2.760019E1,4.4936066E0,-1.7329733E1,6.7717023E0,4.564544E1,6.811885E1,1.6147517E2,6.699353E1,1.8492537E1,5.056278E1,-7.0631766E0,2.5752739E1,1.1653021E2,7.7210785E1,1.7261166E2,1.17080444E2,2.3673062E2,9.018794E1,5.043353E0,5.1362194E1,1.962838E2,3.4538187E2,-1.388156E2,1.3966551E2,5.943614E2,3.2252808E2,2.2204414E2,-1.5995432E2,-1.6573598E2,-4.8718567E2,-1.1399407E3,-4.6116565E2,8.210972E2,2.5760422E2,2.4496384E2,1.644742E2,4.406335E2,6.184379E2,3.0929974E2,4.7262732E2,4.2159512E2,2.1083508E2,4.4507312E2,2.6329788E2,4.502449E2,6.855332E2,2.1060158E2,4.8247693E2,5.745811E2,7.465831E2,4.5851233E2,7.349714E2,2.806406E2,4.175817E2,6.8722504E2,2.4711232E2,4.4150003E2,1.8882806E2,5.9262195E2,3.7935617E2],"split_indices":[0,7,7,6,7,3,2,2,2,2,3,3,3,3,8,3,2,7,2,3,2,2,2,7,3,2,3,3,3,1,3,6,3,3,8,3,3,8,3,3,3,3,3,3,3,3,2,4,2,2,2,0,8,2,2,0,0,0,3,3,3,3,2,0,0,0,0,0,0,0,0,0,0,0,0,0,0,0,0,0,0,0,0,0,0,0,0,0,0,0,0,0,0,0,0,0,0,0,0,0,0,0,0,0,0,0,0,0,0,0,0,0,0,0,0,0,0,0,0,0,0,0,0,0,0,0,0],"split_type":[0,0,0,0,0,0,0,0,0,0,0,0,0,0,0,0,0,0,0,0,0,0,0,0,0,0,0,0,0,0,0,0,0,0,0,0,0,0,0,0,0,0,0,0,0,0,0,0,0,0,0,0,0,0,0,0,0,0,0,0,0,0,0,0,0,0,0,0,0,0,0,0,0,0,0,0,0,0,0,0,0,0,0,0,0,0,0,0,0,0,0,0,0,0,0,0,0,0,0,0,0,0,0,0,0,0,0,0,0,0,0,0,0,0,0,0,0,0,0,0,0,0,0,0,0,0,0],"sum_hessian":[1.35978E5,1.0117E5,3.4808E4,6.8808E4,3.2362E4,2.5645E4,9.163E3,4.3498E4,2.531E4,1.6755E4,1.5607E4,1.3804E4,1.1841E4,6.738E3,2.425E3,3.9959E4,3.539E3,2.3886E4,1.424E3,9.297E3,7.458E3,1.4941E4,6.66E2,1.46E2,1.3658E4,3.906E3,7.935E3,3.464E3,3.274E3,1.637E3,7.88E2,2.187E3,3.7772E4,2.816E3,7.23E2,1.0469E4,1.3417E4,1.007E3,4.17E2,5.591E3,3.706E3,7.011E3,4.47E2,1.882E3,1.3059E4,2.9E2,3.76E2,1.38E2,8E0,2.19E2,1.3439E4,8.77E2,3.029E3,5.948E3,1.987E3,2.23E3,1.234E3,9.09E2,2.365E3,7.7E2,8.67E2,3.62E2,4.26E2,1.247E3,9.4E2,9.221E3,2.8551E4,2.01E2,2.615E3,6.78E2,4.5E1,8.715E3,1.754E3,1.64E2,1.3253E4,6.88E2,3.19E2,3.8E2,3.7E1,3.589E3,2.002E3,1.119E3,2.587E3,4.9E1,6.962E3,2.03E2,2.44E2,1.602E3,2.8E2,7.1E1,1.2988E4,5.3E1,2.37E2,3.62E2,1.4E1,1.31E2,7E0,5E0,3E0,1.97E2,2.2E1,5.238E3,8.201E3,3.63E2,5.14E2,2.352E3,6.77E2,2.76E2,5.672E3,1.521E3,4.66E2,1.719E3,5.11E2,9.15E2,3.19E2,4.3E2,4.79E2,2.092E3,2.73E2,2.97E2,4.73E2,1E1,8.57E2,2.15E2,1.47E2,3.28E2,9.8E1],"tree_param":{"num_deleted":"0","num_feature":"9","num_nodes":"127","size_leaf_vector":"0"}},{"base_weights":[2.952675E2,1.7369016E2,7.840347E2,9.742502E1,3.49251E2,6.663903E2,1.1180917E3,6.639721E1,1.623783E2,3.8950616E2,2.3348177E2,7.8838715E2,5.235899E2,1.4382513E3,1.00414484E3,9.691837E1,4.743796E1,2.0165555E2,1.3754431E2,3.0419873E2,4.7526413E2,2.606044E2,-6.8740067E0,6.074228E2,9.229167E2,4.4068887E2,6.6761993E2,1.2814198E3,1.7896943E3,1.2063816E3,8.4609143E2,5.803111E1,1.17774925E2,3.3602566E1,8.2114586E1,1.9435512E2,4.147021E2,1.209084E2,2.2444872E2,-5.0184143E2,3.0674402E2,4.4690137E2,8.1849133E2,3.0970737E2,2.1959726E2,1.3509012E2,-1.4084717E2,7.6203937E2,4.1113434E2,1.1472947E3,8.4339594E2,4.8438602E2,5.153491E1,-1.4406477E3,6.774723E2,1.5233004E3,9.1822437E2,1.6595758E3,2.3223994E3,1.1414384E3,1.8515554E3,7.32921E2,1.1381855E3,8.115113E1,-2.5853033E1,1.3459232E1,1.2952342E2,1.1128385E2,2.6285614E1,8.173253E1,1.767398E3,7.3674536E2,1.9279538E2,6.545418E2,3.4321307E2,1.4283022E2,6.287531E1,1.870052E2,3.229074E2,-1.9651965E2,-5.868873E2,1.524588E3,3.033243E2,1.2293137E3,4.3480884E2,1.7312406E3,7.467637E2,1.879173E2,3.3837857E2,-3.710508E2,2.2253246E2,4.8160915E1,2.2866637E2,-1.0198971E2,-1.1131414E3,-6.0021783E2,7.750806E2,7.29308E2,3.532474E2,-5.857457E2,1.1682538E3,6.098904E2,9.805167E2,5.784482E2,3.9528207E2,7.074706E1,-3.87795E2,-2.0383179E3,-3.8102655E2,2.8805608E3,6.62736E2,2.214663E3,1.3546934E3,6.6524585E2,1.6623127E3,2.3131145E3,1.5461754E3,-3.434463E2,2.3754382E3,8.315972E2,1.3236193E3,2.3025662E3,1.6143518E3,5.503267E2,8.5009796E2,8.8429144E2,1.5620525E3],"categories":[],"categories_nodes":[],"categories_segments":[],"categories_sizes":[],"default_left":[1,1,1,1,1,1,1,1,1,1,1,1,1,1,1,1,1,1,1,1,1,1,1,1,1,1,1,1,1,1,1,1,1,1,1,1,1,1,1,1,1,1,1,1,1,1,1,1,1,1,1,1,1,1,1,1,1,1,1,1,1,1,1,0,0,0,0,0,0,0,0,0,0,0,0,0,0,0,0,0,0,0,0,0,0,0,0,0,0,0,0,0,0,0,0,0,0,0,0,0,0,0,0,0,0,0,0,0,0,0,0,0,0,0,0,0,0,0,0,0,0,0,0,0,0,0,0],"id":7,"left_children":[1,3,5,7,9,11,13,15,17,19,21,23,25,27,29,31,33,35,37,39,41,43,45,47,49,51,53,55,57,59,61,63,65,67,69,71,73,75,77,79,81,83,85,87,89,91,93,95,97,99,101,103,105,107,109,111,113,115,117,119,121,123,125,-1,-1,-1,-1,-1,-1,-1,-1,-1,-1,-1,-1,-1,-1,-1,-1,-1,-1,-1,-1,-1,-1,-1,-1,-1,-1,-1,-1,-1,-1,-1,-1,-1,-1,-1,-1,-1,-1,-1,-1,-1,-1,-1,-1,-1,-1,-1,-1,-1,-1,-1,-1,-1,-1,-1,-1,-1,-1,-1,-1,-1,-1,-1,-1],"loss_changes":[8.0801454E9,1.4579663E9,1.06373325E9,1.5298906E8,1.5359693E8,3.486034E8,2.5585869E8,2.972512E7,2.3909824E7,1.7885798E8,5.5485696E7,2.6241536E8,1.0994995E8,9.96183E7,1.6535245E8,1.5958768E7,1.5202424E7,1.470128E7,2.1713792E7,2.5325056E7,1.1839949E8,1.5331808E7,1.6451772E7,1.3956736E8,1.0954957E8,9.967475E7,7.099686E7,1.1122496E8,3.551667E7,9.345971E7,9.585587E7,1.3333558E7,1.5700048E7,1.2874522E7,5.67494E6,7.633376E6,5.159164E6,1.6051152E7,8.842848E6,8.97353E5,5.047539E7,1.0610432E8,5.9593664E7,1.2081088E7,7.313696E6,3.4054815E6,1.6698964E7,4.624717E7,3.718637E7,5.9454976E7,1.4595072E8,4.394931E7,5.0326355E6,9.356208E6,1.0704435E8,8.652467E7,9.58369E7,3.0514816E7,1.6227648E7,1.1602714E8,1.8427968E7,4.469875E7,8.632672E7,0E0,0E0,0E0,0E0,0E0,0E0,0E0,0E0,0E0,0E0,0E0,0E0,0E0,0E0,0E0,0E0,0E0,0E0,0E0,0E0,0E0,0E0,0E0,0E0,0E0,0E0,0E0,0E0,0E0,0E0,0E0,0E0,0E0,0E0,0E0,0E0,0E0,0E0,0E0,0E0,0E0,0E0,0E0,0E0,0E0,0E0,0E0,0E0,0E0,0E0,0E0,0E0,0E0,0E0,0E0,0E0,0E0,0E0,0E0,0E0,0E0,0E0,0E0,0E0],"parents":[2147483647,0,0,1,1,2,2,3,3,4,4,5,5,6,6,7,7,8,8,9,9,10,10,11,11,12,12,13,13,14,14,15,15,16,16,17,17,18,18,19,19,20,20,21,21,22,22,23,23,24,24,25,25,26,26,27,27,28,28,29,29,30,30,31,31,32,32,33,33,34,34,35,35,36,36,37,37,38,38,39,39,40,40,41,41,42,42,43,43,44,44,45,45,46,46,47,47,48,48,49,49,50,50,51,51,52,52,53,53,54,54,55,55,56,56,57,57,58,58,59,59,60,60,61,61,62,62],"right_children":[2,4,6,8,10,12,14,16,18,20,22,24,26,28,30,32,34,36,38,40,42,44,46,48,50,52,54,56,58,60,62,64,66,68,70,72,74,76,78,80,82,84,86,88,90,92,94,96,98,100,102,104,106,108,110,112,114,116,118,120,122,124,126,-1,-1,-1,-1,-1,-1,-1,-1,-1,-1,-1,-1,-1,-1,-1,-1,-1,-1,-1,-1,-1,-1,-1,-1,-1,-1,-1,-1,-1,-1,-1,-1,-1,-1,-1,-1,-1,-1,-1,-1,-1,-1,-1,-1,-1,-1,-1,-1,-1,-1,-1,-1,-1,-1,-1,-1,-1,-1,-1,-1,-1,-1,-1,-1],"split_conditions":[6.496599E-1,4.6825397E-1,7.0320857E-1,3.2312924E-1,5.833334E-1,5.833334E-1,4.166667E-1,2.5E-1,2.5E-1,7.2853535E-1,9.166666E-1,7.9671717E-1,8.2196975E-1,5E-1,6.25E-1,5E-1,2.1000001E-1,7.8571427E-1,7.8571427E-1,7.1428575E-2,7.8571427E-1,6.25E-1,4.090909E-1,6.395349E-1,2.5E-1,9.166666E-1,7.1428575E-2,3.5714287E-1,7.620321E-1,9.4777775E-1,9.3813133E-1,3.5714287E-1,5.0802138E-2,2.1428573E-1,5.026738E-1,2.1428573E-1,9.2857146E-1,6.428572E-1,6.098485E-1,6.531532E-1,2.1428573E-1,2.1428573E-1,8.3333336E-2,3.75E-1,7.1428575E-2,5.453515E-1,7.8571427E-1,7.1428575E-2,8.3333336E-2,7.1428575E-2,5E-1,6.25E-1,7.8571427E-1,8.468468E-1,2.1428573E-1,8.3333336E-2,9.438503E-1,6.428572E-1,4.72973E-1,5E-1,3.5714287E-1,5E-1,5E-1,2.434534E1,-7.7559104E0,4.03777E0,3.885703E1,3.338516E1,7.8856845E0,2.451976E1,5.302194E2,2.2102362E2,5.7838615E1,1.9636255E2,1.0296393E2,4.2849068E1,1.8862593E1,5.6101562E1,9.687223E1,-5.89559E1,-1.7606621E2,4.5737643E2,9.09973E1,3.6879413E2,1.3044266E2,5.193722E2,2.2402911E2,5.637519E1,1.0151357E2,-1.1131525E2,6.675974E1,1.4448276E1,6.8599915E1,-3.0596914E1,-3.339424E2,-1.8006535E2,2.325242E2,2.187924E2,1.0597423E2,-1.7572372E2,3.5047614E2,1.8296712E2,2.9415503E2,1.7353445E2,1.18584625E2,2.122412E1,-1.1633851E2,-6.1149536E2,-1.1430797E2,8.641683E2,1.9882082E2,6.643989E2,4.0640802E2,1.9957376E2,4.9869385E2,6.939344E2,4.6385263E2,-1.0303389E2,7.126315E2,2.4947917E2,3.970858E2,6.907699E2,4.8430557E2,1.6509802E2,2.550294E2,2.6528745E2,4.6861575E2],"split_indices":[7,7,0,7,2,2,2,2,2,8,2,8,8,3,1,3,6,3,3,3,3,1,0,5,2,2,3,3,0,6,8,3,0,3,0,3,3,3,8,4,3,3,2,1,3,7,3,3,2,3,3,1,3,4,3,2,0,3,4,3,3,3,3,0,0,0,0,0,0,0,0,0,0,0,0,0,0,0,0,0,0,0,0,0,0,0,0,0,0,0,0,0,0,0,0,0,0,0,0,0,0,0,0,0,0,0,0,0,0,0,0,0,0,0,0,0,0,0,0,0,0,0,0,0,0,0,0],"split_type":[0,0,0,0,0,0,0,0,0,0,0,0,0,0,0,0,0,0,0,0,0,0,0,0,0,0,0,0,0,0,0,0,0,0,0,0,0,0,0,0,0,0,0,0,0,0,0,0,0,0,0,0,0,0,0,0,0,0,0,0,0,0,0,0,0,0,0,0,0,0,0,0,0,0,0,0,0,0,0,0,0,0,0,0,0,0,0,0,0,0,0,0,0,0,0,0,0,0,0,0,0,0,0,0,0,0,0,0,0,0,0,0,0,0,0,0,0,0,0,0,0,0,0,0,0,0,0],"sum_hessian":[1.35978E5,1.08893E5,2.7085E4,7.5916E4,3.2977E4,2.0033E4,7.052E3,5.1376E4,2.454E4,2.4467E4,8.51E3,1.0801E4,9.232E3,1.848E3,5.204E3,1.9684E4,3.1692E4,9.503E3,1.5037E4,1.2268E4,1.2199E4,7.647E3,8.63E2,4.608E3,6.193E3,5.862E3,3.37E3,1.281E3,5.67E2,2.28E3,2.924E3,6.873E3,1.2811E4,2.2655E4,9.037E3,9.19E3,3.13E2,1.2623E4,2.414E3,3.8E1,1.223E4,1.127E4,9.29E2,3.477E3,4.17E3,4.19E2,4.44E2,2.576E3,2.032E3,1.617E3,4.576E3,5.27E3,5.92E2,1.5E1,3.355E3,7.67E2,5.14E2,4.59E2,1.08E2,2.074E3,2.06E2,2.11E3,8.14E2,5.388E3,1.485E3,1.297E3,1.1514E4,1.949E3,2.0706E4,9.036E3,1E0,2.5E1,9.165E3,7E1,2.43E2,9.161E3,3.462E3,1.751E3,6.63E2,9E0,2.9E1,3.3E1,1.2197E4,1.7E2,1.11E4,6.6E1,8.63E2,6.64E2,2.813E3,2E1,4.15E3,2.18E2,2.01E2,4.28E2,1.6E1,2.4E1,2.552E3,3.11E2,1.721E3,1.9E1,1.598E3,1.695E3,2.881E3,2.561E3,2.709E3,5.68E2,2.4E1,9E0,6E0,2.1E1,3.334E3,1.48E2,6.19E2,3.85E2,1.29E2,6.5E1,3.94E2,2E0,1.06E2,7.7E2,1.304E3,6.8E1,1.38E2,8.27E2,1.283E3,5.11E2,3.03E2],"tree_param":{"num_deleted":"0","num_feature":"9","num_nodes":"127","size_leaf_vector":"0"}},{"base_weights":[2.0676746E2,1.03166084E2,4.930885E2,5.847263E1,1.9830554E2,3.6891095E2,6.808099E2,3.820921E1,8.792277E1,2.4087758E2,1.4922206E2,2.8233505E2,4.766459E2,9.067274E2,6.0032855E2,4.6647736E1,-4.5552406E0,1.4218227E2,7.695493E1,1.7620552E2,2.9168307E2,1.0564884E2,1.946786E2,3.7692502E2,1.49472E2,6.844624E2,3.7499548E2,-1.7824083E3,9.179264E2,5.601346E2,1.1278918E3,6.9568634E1,3.3149525E1,-1.6426584E1,4.525777E1,1.1109009E2,1.702406E2,4.380916E1,9.383114E1,1.3316734E2,2.3024413E2,2.4437593E2,4.4671832E2,1.5663586E2,1.6697325E1,2.9456662E2,1.4636913E2,-4.359819E2,3.894076E2,2.9296216E2,1.24852196E2,1.2496055E3,6.112202E2,2.755478E2,6.475604E2,-6.460438E2,-3.1511565E3,1.1148123E3,7.6939886E2,5.159738E2,9.2934326E2,1.227317E3,5.122587E2,3.2732864E1,8.7256065E1,2.0321081E1,6.402541E1,-3.1270096E1,1.40648365E1,-1.5052665E1,5.5944088E1,1.4356326E2,3.3259158E0,2.4426945E2,1.4598051E2,2.2560818E2,3.1601702E1,1.523604E2,6.579355E1,1.6941168E2,6.222058E1,3.312684E2,1.8370047E2,-5.6788916E2,2.5160466E2,7.319308E2,3.4892722E2,-2.7157855E2,1.6100645E2,-1.59471245E1,9.133219E1,3.4265634E2,1.6909966E2,1.124798E2,2.48056E2,-5.240777E2,1.8665999E2,1.4645077E3,3.580997E2,2.836401E2,1.5953884E3,1.456472E2,-1.2005525E1,9.108884E2,1.4294568E3,6.8477905E2,2.450885E2,3.741753E2,1.6893234E2,1.6177036E3,5.979592E2,-1.01499084E3,1.3372397E3,1.1830005E3,6.793495E2,4.198441E3,7.6103925E2,1.757924E3,5.0223077E2,7.617902E2,1.2285562E3,1.0936592E3,1.7016279E3,1.2813938E3,2.7151923E2],"categories":[],"categories_nodes":[],"categories_segments":[],"categories_sizes":[],"default_left":[1,1,1,1,1,1,1,1,1,1,1,1,1,1,1,1,1,1,1,1,1,1,1,1,1,1,1,1,1,1,1,1,1,1,1,1,1,1,1,1,1,1,1,1,1,1,1,1,1,1,1,1,1,1,1,1,0,1,1,1,1,1,1,0,0,0,0,0,0,0,0,0,0,0,0,0,0,0,0,0,0,0,0,0,0,0,0,0,0,0,0,0,0,0,0,0,0,0,0,0,0,0,0,0,0,0,0,0,0,0,0,0,0,0,0,0,0,0,0,0,0,0,0,0,0],"id":8,"left_children":[1,3,5,7,9,11,13,15,17,19,21,23,25,27,29,31,33,35,37,39,41,43,45,47,49,51,53,55,57,59,61,63,65,67,69,71,73,75,77,79,81,83,85,87,89,91,93,95,97,99,101,103,105,107,109,111,-1,113,115,117,119,121,123,-1,-1,-1,-1,-1,-1,-1,-1,-1,-1,-1,-1,-1,-1,-1,-1,-1,-1,-1,-1,-1,-1,-1,-1,-1,-1,-1,-1,-1,-1,-1,-1,-1,-1,-1,-1,-1,-1,-1,-1,-1,-1,-1,-1,-1,-1,-1,-1,-1,-1,-1,-1,-1,-1,-1,-1,-1,-1,-1,-1,-1,-1],"loss_changes":[4.0335283E9,4.245659E8,8.4194406E8,4.0539376E7,6.665101E7,2.027049E8,2.6096998E8,1.4524468E7,1.6468208E7,5.609779E7,2.934512E7,1.5150784E8,2.0439885E8,1.1535283E8,2.243095E8,1.0397872E7,3.9237418E6,4.042088E6,1.2882208E7,1.746112E7,7.007251E7,3.4339224E7,3.4966176E7,7.164646E7,1.7686976E7,1.3090534E8,1.7622707E8,2.285056E7,1.0912512E8,1.602665E8,4.5278336E7,8.113904E6,8.379164E6,2.4254692E6,8.2386425E5,7.736798E6,4.355432E6,1.724574E7,2.5038496E7,1.0761136E7,1.561104E7,4.3205536E7,6.210947E7,9.051512E6,6.7259595E6,1.4205664E7,1.6830416E7,5.967E6,2.3300237E8,8.459176E6,1.2193824E7,2.087232E7,7.572717E7,5.009437E7,8.271386E7,8.674552E6,0E0,4.715123E7,5.834931E7,1.4945357E8,5.180512E7,3.9029056E7,1.9279164E7,0E0,0E0,0E0,0E0,0E0,0E0,0E0,0E0,0E0,0E0,0E0,0E0,0E0,0E0,0E0,0E0,0E0,0E0,0E0,0E0,0E0,0E0,0E0,0E0,0E0,0E0,0E0,0E0,0E0,0E0,0E0,0E0,0E0,0E0,0E0,0E0,0E0,0E0,0E0,0E0,0E0,0E0,0E0,0E0,0E0,0E0,0E0,0E0,0E0,0E0,0E0,0E0,0E0,0E0,0E0,0E0,0E0,0E0,0E0,0E0,0E0,0E0],"parents":[2147483647,0,0,1,1,2,2,3,3,4,4,5,5,6,6,7,7,8,8,9,9,10,10,11,11,12,12,13,13,14,14,15,15,16,16,17,17,18,18,19,19,20,20,21,21,22,22,23,23,24,24,25,25,26,26,27,27,28,28,29,29,30,30,31,31,32,32,33,33,34,34,35,35,36,36,37,37,38,38,39,39,40,40,41,41,42,42,43,43,44,44,45,45,46,46,47,47,48,48,49,49,50,50,51,51,52,52,53,53,54,54,55,55,57,57,58,58,59,59,60,60,61,61,62,62],"right_children":[2,4,6,8,10,12,14,16,18,20,22,24,26,28,30,32,34,36,38,40,42,44,46,48,50,52,54,56,58,60,62,64,66,68,70,72,74,76,78,80,82,84,86,88,90,92,94,96,98,100,102,104,106,108,110,112,-1,114,116,118,120,122,124,-1,-1,-1,-1,-1,-1,-1,-1,-1,-1,-1,-1,-1,-1,-1,-1,-1,-1,-1,-1,-1,-1,-1,-1,-1,-1,-1,-1,-1,-1,-1,-1,-1,-1,-1,-1,-1,-1,-1,-1,-1,-1,-1,-1,-1,-1,-1,-1,-1,-1,-1,-1,-1,-1,-1,-1,-1,-1,-1,-1,-1,-1],"split_conditions":[7.436869E-1,6.1742425E-1,8.169192E-1,2.2555557E-1,4.166667E-1,5E-1,4.166667E-1,8.75E-1,8.3333336E-2,3.0748665E-1,5E-1,3.5714287E-1,6.428572E-1,7.1428575E-2,7.8571427E-1,2.5E-1,8.963964E-1,5E-1,5E-1,5E-1,5E-1,3.5714287E-1,6.428572E-1,7.1428575E-2,8.3333336E-2,2.5E-1,7.8571427E-1,7.9444444E-1,6.589147E-1,8.877778E-1,9.166666E-1,5E-1,7.8571427E-1,7.8571427E-1,1.1E-1,3.5714287E-1,6.428572E-1,2.1428573E-1,6.428572E-1,3.5714287E-1,6.428572E-1,7.1428575E-2,6.428572E-1,7.1428575E-2,7.260101E-1,7.5E-1,7.8571427E-1,6.855556E-1,2.1428573E-1,5.909091E-1,7.5E-1,6.269841E-1,7.5E-1,6.25E-1,8.3333336E-2,7.811111E-1,-9.45347E2,8.873874E-1,2.1428573E-1,2.1428573E-1,5E-1,7.139037E-1,9.2857146E-1,9.8198595E0,2.617682E1,6.0963244E0,1.9207624E1,-9.381029E0,4.219451E0,-4.5157995E0,1.6783228E1,4.306898E1,9.977748E-1,7.328084E1,4.3794155E1,6.768246E1,9.480511E0,4.5708122E1,1.9738066E1,5.0823505E1,1.8666176E1,9.938052E1,5.511014E1,-1.7036676E2,7.54814E1,2.1957924E2,1.0467817E2,-8.147357E1,4.8301937E1,-4.7841377E0,2.7399658E1,1.02796906E2,5.07299E1,3.3743942E1,7.44168E1,-1.5722331E2,5.5997997E1,4.3935233E2,1.0742992E2,8.509203E1,4.7861655E2,4.369416E1,-3.6016576E0,2.7326654E2,4.2883707E2,2.0543373E2,7.352655E1,1.12252594E2,5.0679707E1,4.853111E2,1.7938777E2,-3.0449725E2,4.0117194E2,3.5490015E2,2.0380486E2,1.2595323E3,2.2831178E2,5.273772E2,1.5066924E2,2.2853708E2,3.6856686E2,3.2809778E2,5.104884E2,3.8441815E2,8.145577E1],"split_indices":[8,8,8,6,2,3,2,1,2,0,3,3,3,3,3,2,4,3,3,3,3,3,3,3,2,2,3,6,5,6,2,3,3,3,6,3,3,3,3,3,3,3,3,3,8,2,3,6,3,0,2,7,2,1,2,6,0,4,3,3,3,0,3,0,0,0,0,0,0,0,0,0,0,0,0,0,0,0,0,0,0,0,0,0,0,0,0,0,0,0,0,0,0,0,0,0,0,0,0,0,0,0,0,0,0,0,0,0,0,0,0,0,0,0,0,0,0,0,0,0,0,0,0,0,0],"split_type":[0,0,0,0,0,0,0,0,0,0,0,0,0,0,0,0,0,0,0,0,0,0,0,0,0,0,0,0,0,0,0,0,0,0,0,0,0,0,0,0,0,0,0,0,0,0,0,0,0,0,0,0,0,0,0,0,0,0,0,0,0,0,0,0,0,0,0,0,0,0,0,0,0,0,0,0,0,0,0,0,0,0,0,0,0,0,0,0,0,0,0,0,0,0,0,0,0,0,0,0,0,0,0,0,0,0,0,0,0,0,0,0,0,0,0,0,0,0,0,0,0,0,0,0,0],"sum_hessian":[1.35978E5,9.985E4,3.6128E4,6.7937E4,3.1913E4,2.1746E4,1.4382E4,4.0247E4,2.769E4,1.7088E4,1.4825E4,1.2059E4,9.687E3,3.775E3,1.0607E4,3.3614E4,6.633E3,4.654E3,2.3036E4,7.52E3,9.568E3,7.571E3,7.254E3,7.043E3,5.016E3,3.18E3,6.507E3,1.5E1,3.76E3,9.858E3,7.49E2,1.2457E4,2.1157E4,5.357E3,1.276E3,2.21E3,2.444E3,7.773E3,1.5263E4,4.188E3,3.332E3,7.333E3,2.235E3,4.812E3,2.759E3,2.363E3,4.891E3,1.06E2,6.937E3,7.33E2,4.283E3,3.63E2,2.817E3,4.769E3,1.738E3,9E0,6E0,1.614E3,2.146E3,8.807E3,1.051E3,6.44E2,1.05E2,4.042E3,8.415E3,1.4948E4,6.209E3,3.603E3,1.754E3,1.92E2,1.084E3,1.698E3,5.12E2,6.01E2,1.843E3,4.88E2,7.285E3,4.942E3,1.0321E4,2.771E3,1.417E3,1.049E3,2.283E3,6.4E1,7.269E3,5.69E2,1.666E3,4.8E1,4.764E3,1.92E3,8.39E2,1.707E3,6.56E2,3.67E3,1.221E3,9.3E1,1.3E1,1.95E2,6.742E3,7.29E2,4E0,3.718E3,5.65E2,1.28E2,2.35E2,2.345E3,4.72E2,2.476E3,2.293E3,8.3E1,1.655E3,8E0,1E0,1.394E3,2.2E2,4E0,2.142E3,9.5E1,8.712E3,6.76E2,3.75E2,5.05E2,1.39E2,2.4E1,8.1E1],"tree_param":{"num_deleted":"0","num_feature":"9","num_nodes":"125","size_leaf_vector":"0"}},{"base_weights":[1.4479396E2,8.748609E1,4.0783878E2,5.04461E1,1.851622E2,3.4204193E2,5.6888715E2,3.349162E1,9.0786255E1,2.4497864E2,1.27702156E2,3.9741357E2,1.50631E2,6.0745496E2,6.429761E1,1.0813782E0,4.158758E1,1.618335E2,7.9785416E1,3.0999765E2,1.8502054E2,2.8007687E2,1.0628804E2,4.9729153E2,3.0901434E2,-1.146937E3,1.566428E2,7.4896747E2,4.990804E2,-1.0392741E1,5.033737E2,-1.2534456E1,2.7827497E1,4.5801586E1,-1.3295311E1,1.5486606E2,3.8629913E2,7.0141815E1,1.5755266E2,2.4383276E2,4.774614E2,2.1566643E2,9.107844E1,2.2814891E2,5.300852E2,-2.1356983E1,1.193432E2,1.3222974E2,5.3813184E2,6.0433356E2,2.8234204E2,-1.7659785E3,-3.316756E2,2.1258406E2,1.976887E1,7.286613E2,1.5660283E3,-2.9487122E3,5.045233E2,1.2316795E2,-2.8501834E2,5.959989E2,-6.302746E2,-6.3317013E1,1.1705984E-1,4.022424E1,-2.1236206E1,1.14875175E2,4.2586975E1,-1.8926125E0,-5.869366E1,1.24270035E2,1.9785036E2,1.8045076E2,4.7713248E2,3.1123657E2,6.763069E1,2.5397614E2,1.2266169E2,9.777523E2,2.3152641E2,3.245788E2,5.9181244E2,2.4130397E2,1.1056331E2,-5.6299024E0,1.2334075E2,3.4888882E2,1.0832663E2,4.236936E2,1.0927689E3,-3.9530072E2,-2.5652745E0,-4.358165E2,1.2260554E2,2.3426346E2,-3.2542313E2,4.5333215E2,7.0442694E2,5.2442773E2,9.5863525E2,2.0935286E2,3.5818805E2,-7.6977905E2,-2.301815E3,4.2915813E1,-8.106438E2,1.25118225E2,3.1210596E2,-7.718082E1,1.3156732E2,5.843948E2,8.5123956E2,1.946806E3,8.3321857E2,-1.1656992E3,-3.548794E3,4.1298545E3,4.965527E2,1.2121617E3,9.589287E1,-1.9271882E3,-1.584523E2,2.9078884E1,7.844021E2,-1.3903643E3,9.736133E1],"categories":[],"categories_nodes":[],"categories_segments":[],"categories_sizes":[],"default_left":[1,1,1,1,1,1,1,1,1,1,1,1,1,1,1,1,1,1,1,1,1,1,1,1,1,1,1,1,1,1,1,1,1,1,1,1,1,1,1,1,1,1,1,1,1,1,1,1,1,1,1,1,1,1,1,1,1,1,1,1,1,1,1,0,0,0,0,0,0,0,0,0,0,0,0,0,0,0,0,0,0,0,0,0,0,0,0,0,0,0,0,0,0,0,0,0,0,0,0,0,0,0,0,0,0,0,0,0,0,0,0,0,0,0,0,0,0,0,0,0,0,0,0,0,0,0,0],"id":9,"left_children":[1,3,5,7,9,11,13,15,17,19,21,23,25,27,29,31,33,35,37,39,41,43,45,47,49,51,53,55,57,59,61,63,65,67,69,71,73,75,77,79,81,83,85,87,89,91,93,95,97,99,101,103,105,107,109,111,113,115,117,119,121,123,125,-1,-1,-1,-1,-1,-1,-1,-1,-1,-1,-1,-1,-1,-1,-1,-1,-1,-1,-1,-1,-1,-1,-1,-1,-1,-1,-1,-1,-1,-1,-1,-1,-1,-1,-1,-1,-1,-1,-1,-1,-1,-1,-1,-1,-1,-1,-1,-1,-1,-1,-1,-1,-1,-1,-1,-1,-1,-1,-1,-1,-1,-1,-1,-1],"loss_changes":[2.0497848E9,4.039499E8,2.5756442E8,5.5367216E7,1.0548282E8,1.8300147E8,1.3723827E8,1.4956824E7,1.8710608E7,5.857485E7,5.106832E7,1.181216E8,3.0423104E7,1.0012544E8,1.6468194E7,4.14971E6,1.0548904E7,4.962016E6,1.5547536E7,7.981619E7,2.2513808E7,2.492216E7,2.2885904E7,9.367808E7,5.5825856E7,8.498518E6,2.955144E7,4.597837E7,7.118451E7,1.5807154E7,8.040966E6,4.8513465E6,2.3388905E6,9.400248E6,1.6838488E6,4.073424E6,1.708899E6,1.1154352E7,7.666388E6,4.649552E7,3.550675E7,1.587408E7,6.013002E6,2.3095472E7,1.9352264E7,8.958464E6,2.2616352E7,2.9681514E7,7.942605E7,1.6144E7,3.60304E7,3.566112E6,1.6495458E6,2.3812008E7,1.2160477E7,4.854016E7,1.7352448E7,2.282892E6,1.051248E8,8.497458E6,2.9000484E7,7.240236E6,3.4537788E6,0E0,0E0,0E0,0E0,0E0,0E0,0E0,0E0,0E0,0E0,0E0,0E0,0E0,0E0,0E0,0E0,0E0,0E0,0E0,0E0,0E0,0E0,0E0,0E0,0E0,0E0,0E0,0E0,0E0,0E0,0E0,0E0,0E0,0E0,0E0,0E0,0E0,0E0,0E0,0E0,0E0,0E0,0E0,0E0,0E0,0E0,0E0,0E0,0E0,0E0,0E0,0E0,0E0,0E0,0E0,0E0,0E0,0E0,0E0,0E0,0E0,0E0,0E0,0E0],"parents":[2147483647,0,0,1,1,2,2,3,3,4,4,5,5,6,6,7,7,8,8,9,9,10,10,11,11,12,12,13,13,14,14,15,15,16,16,17,17,18,18,19,19,20,20,21,21,22,22,23,23,24,24,25,25,26,26,27,27,28,28,29,29,30,30,31,31,32,32,33,33,34,34,35,35,36,36,37,37,38,38,39,39,40,40,41,41,42,42,43,43,44,44,45,45,46,46,47,47,48,48,49,49,50,50,51,51,52,52,53,53,54,54,55,55,56,56,57,57,58,58,59,59,60,60,61,61,62,62],"right_children":[2,4,6,8,10,12,14,16,18,20,22,24,26,28,30,32,34,36,38,40,42,44,46,48,50,52,54,56,58,60,62,64,66,68,70,72,74,76,78,80,82,84,86,88,90,92,94,96,98,100,102,104,106,108,110,112,114,116,118,120,122,124,126,-1,-1,-1,-1,-1,-1,-1,-1,-1,-1,-1,-1,-1,-1,-1,-1,-1,-1,-1,-1,-1,-1,-1,-1,-1,-1,-1,-1,-1,-1,-1,-1,-1,-1,-1,-1,-1,-1,-1,-1,-1,-1,-1,-1,-1,-1,-1,-1,-1,-1,-1,-1,-1,-1,-1,-1,-1,-1,-1,-1,-1,-1,-1,-1],"split_conditions":[4.8395723E-1,3.0213904E-1,7.0320857E-1,5.4671717E-1,6.356589E-1,7.5E-1,9.166666E-1,1.2777779E-1,8.3333336E-2,4.166667E-1,8.3333336E-2,6.25E-1,7.1428575E-2,6.25E-1,9.8072565E-1,7.8571427E-1,7.5E-1,7.8571427E-1,7.8571427E-1,5E-1,6.25E-1,5E-1,6.171171E-1,3.75E-1,8.3333336E-2,8.423423E-1,9.166666E-1,9.9433106E-1,7.1428575E-2,7.566845E-1,9.988662E-1,5.0802138E-2,5.833334E-1,2.1428573E-1,9.166666E-1,4.3E-1,2.2192514E-1,2.1428573E-1,4.166667E-1,2.1428573E-1,5.9000003E-1,7.5E-1,8.75E-1,3.5714287E-1,4.4117647E-1,4.4594595E-1,7.1428575E-2,8.106576E-1,7.2902495E-1,8.1292516E-1,5E-1,7.8231287E-1,9.234234E-1,5E-1,7.5396824E-1,5E-1,7.5E-1,7.700535E-1,2.1428573E-1,2.1428573E-1,8.3777773E-1,3.5714287E-1,9.705882E-1,-1.8995104E1,3.5117954E-2,1.2067272E1,-6.370862E0,3.4462555E1,1.27760935E1,-5.677838E-1,-1.7608099E1,3.7281013E1,5.935511E1,5.413523E1,1.4313976E2,9.337097E1,2.0289207E1,7.619284E1,3.6798508E1,2.933257E2,6.9457924E1,9.737364E1,1.7754373E2,7.23912E1,3.3168995E1,-1.6889708E0,3.7002228E1,1.0466665E2,3.249799E1,1.27108086E2,3.278307E2,-1.1859022E2,-7.695824E-1,-1.3074495E2,3.6781662E1,7.027904E1,-9.7626945E1,1.3599965E2,2.113281E2,1.5732832E2,2.8759058E2,6.280586E1,1.0745642E2,-2.3093373E2,-6.905445E2,1.2874744E1,-2.4319315E2,3.753547E1,9.363179E1,-2.3154245E1,3.94702E1,1.7531844E2,2.5537187E2,5.840418E2,2.4996558E2,-3.4970978E2,-1.0646382E3,1.2389564E3,1.4896582E2,3.6364853E2,2.8767862E1,-5.781565E2,-4.753569E1,8.723665E0,2.3532063E2,-4.1710928E2,2.9208399E1],"split_indices":[0,0,0,8,5,2,2,6,2,2,2,1,3,1,7,3,2,3,3,3,1,3,4,1,2,4,2,7,3,0,7,0,2,3,2,6,0,3,2,3,6,2,1,3,0,4,3,7,7,7,3,7,4,3,7,3,2,0,3,3,6,3,0,0,0,0,0,0,0,0,0,0,0,0,0,0,0,0,0,0,0,0,0,0,0,0,0,0,0,0,0,0,0,0,0,0,0,0,0,0,0,0,0,0,0,0,0,0,0,0,0,0,0,0,0,0,0,0,0,0,0,0,0,0,0,0,0],"split_type":[0,0,0,0,0,0,0,0,0,0,0,0,0,0,0,0,0,0,0,0,0,0,0,0,0,0,0,0,0,0,0,0,0,0,0,0,0,0,0,0,0,0,0,0,0,0,0,0,0,0,0,0,0,0,0,0,0,0,0,0,0,0,0,0,0,0,0,0,0,0,0,0,0,0,0,0,0,0,0,0,0,0,0,0,0,0,0,0,0,0,0,0,0,0,0,0,0,0,0,0,0,0,0,0,0,0,0,0,0,0,0,0,0,0,0,0,0,0,0,0,0,0,0,0,0,0,0],"sum_hessian":[1.35978E5,1.11654E5,2.4324E4,8.0956E4,3.0698E4,1.7271E4,7.053E3,5.7001E4,2.3955E4,1.5039E4,1.5659E4,1.3395E4,3.876E3,6.552E3,5.01E2,1.1393E4,4.5608E4,3.21E3,2.0745E4,7.213E3,7.826E3,1.928E3,1.3731E4,6.287E3,7.108E3,1.7E1,3.859E3,2.839E3,3.713E3,4.29E2,7.2E1,7.55E3,3.843E3,4.2356E4,3.252E3,3.115E3,9.5E1,1.8458E4,2.287E3,5.172E3,2.041E3,5.9E3,1.926E3,1.598E3,3.3E2,1.274E3,1.2457E4,6.33E2,5.654E3,5.87E2,6.521E3,9E0,8E0,2.739E3,1.12E3,2.772E3,6.7E1,5E0,3.708E3,2.89E2,1.4E2,6.7E1,5E0,1.505E3,6.045E3,3.068E3,7.75E2,1.882E3,4.0474E4,2.6E3,6.52E2,1.822E3,1.293E3,3E1,6.5E1,1.89E2,1.8269E4,6.06E2,1.681E3,8.4E1,5.088E3,8.75E2,1.166E3,4.742E3,1.158E3,4.82E2,1.444E3,7.95E2,8.03E2,2.79E2,5.1E1,6E1,1.214E3,7.2E1,1.2385E4,5.18E2,1.15E2,3.747E3,1.907E3,4.81E2,1.06E2,3.325E3,3.196E3,4E0,5E0,5E0,3E0,1.459E3,1.28E3,6E2,5.2E2,1.276E3,1.496E3,4.3E1,2.4E1,2E0,3E0,7E0,3.701E3,6E0,2.83E2,9E0,1.31E2,1.7E1,5E1,2E0,3E0],"tree_param":{"num_deleted":"0","num_feature":"9","num_nodes":"127","size_leaf_vector":"0"}},{"base_weights":[1.0137403E2,6.3380543E1,2.999956E2,3.5772232E1,1.337191E2,5.266706E2,2.6470984E2,2.1764135E1,6.1739902E1,2.1241206E2,1.0400895E2,4.151528E2,6.779514E2,1.6734581E2,3.4424033E2,1.3962163E1,4.477666E1,8.2518E1,2.8332035E1,1.6141852E2,3.8841275E2,1.762529E2,7.5797516E1,3.1869217E2,6.2370544E2,6.926288E2,-1.4163221E3,3.3726865E2,-1.3207541E2,5.592362E2,2.3367184E2,3.1235945E1,1.5871484E0,8.124126E1,1.4124562E1,9.423802E1,3.5730244E1,5.8288475E1,1.0279975E1,2.4284819E2,7.626358E1,6.7151086E2,2.8313318E2,1.2643436E2,2.3795139E2,8.356671E1,-1.3520387E2,5.2691504E2,8.641748E1,6.4074866E2,-2.6122053E3,5.2617267E2,8.4337396E2,8.113887E2,-2.1687236E3,-1.2048435E3,3.532994E2,-1.0062011E1,-2.4857863E2,3.5923648E2,7.226968E2,1.5463376E2,5.376669E2,1.5570094E2,2.9570047E1,5.7490795E1,-4.8000727E0,6.5495906E0,9.017753E1,8.258783E0,8.963083E1,7.194986E1,1.2367948E2,-1.4465537E1,6.42615E1,7.1455695E2,5.6208626E1,-1.6839396E1,3.5347145E1,-5.3709406E2,2.5455382E2,-4.336449E1,9.2439865E1,2.67379E2,7.8126807E2,1.9784981E2,5.8844226E2,1.7257405E2,5.5542774E1,3.8589105E2,1.6382184E2,5.1648438E1,1.3198898E2,-2.1738462E1,-2.3603311E2,-4.4777414E2,5.726661E2,-8.713914E2,9.68036E1,3.7694452E2,7.6219354E2,5.394072E2,-2.2475999E3,1.1002278E3,6.558206E2,-9.360192E2,-2.4746016E3,-5.0907324E2,-2.2569854E3,1.8305181E3,3.1627325E2,-3.2434372E1,3.184038E2,-3.326075E2,1.6399951E2,4.98209E2,2.1716267E2,8.316126E2,5.5439825E2,1.1169085E2,4.8028302E2,9.1722375E2,4.0607642E2],"categories":[],"categories_nodes":[],"categories_segments":[],"categories_sizes":[],"default_left":[1,1,1,1,1,1,1,1,1,1,1,1,1,1,1,1,1,1,1,1,1,1,1,1,1,1,1,1,1,1,1,1,1,1,1,1,1,1,1,1,1,1,1,1,1,1,1,1,1,1,0,1,1,0,1,1,1,1,1,1,1,1,1,0,0,0,0,0,0,0,0,0,0,0,0,0,0,0,0,0,0,0,0,0,0,0,0,0,0,0,0,0,0,0,0,0,0,0,0,0,0,0,0,0,0,0,0,0,0,0,0,0,0,0,0,0,0,0,0,0,0,0,0],"id":10,"left_children":[1,3,5,7,9,11,13,15,17,19,21,23,25,27,29,31,33,35,37,39,41,43,45,47,49,51,53,55,57,59,61,63,65,67,69,71,73,75,77,79,81,83,85,87,89,91,93,95,97,99,-1,101,103,-1,105,107,109,111,113,115,117,119,121,-1,-1,-1,-1,-1,-1,-1,-1,-1,-1,-1,-1,-1,-1,-1,-1,-1,-1,-1,-1,-1,-1,-1,-1,-1,-1,-1,-1,-1,-1,-1,-1,-1,-1,-1,-1,-1,-1,-1,-1,-1,-1,-1,-1,-1,-1,-1,-1,-1,-1,-1,-1,-1,-1,-1,-1,-1,-1,-1,-1],"loss_changes":[1.0261229E9,2.2165862E8,1.7449766E8,2.981696E7,7.52E7,4.9317824E7,1.4625408E8,9.560042E6,1.9936488E7,7.906899E7,4.759272E7,3.3899744E7,3.9280896E7,4.3235923E8,2.4707187E8,8.501104E6,1.5067902E7,9.707424E6,5.956583E6,4.739712E7,5.8822656E7,2.0130496E7,2.7551712E7,5.610612E7,3.1179168E7,3.0620672E7,1.6844876E7,1.3443942E8,4.373692E7,1.1517619E8,1.6495958E8,3.437131E6,8.2739215E6,4.108992E6,3.2439675E6,9.283504E6,5.0836255E6,5.613415E6,4.6742605E6,3.204504E7,6.475112E6,2.3566144E7,3.750819E7,1.1867116E7,3.205824E7,2.5037352E7,6.824926E6,2.7547392E7,5.55571E6,1.6788768E7,0E0,2.2907744E7,3.0495072E7,0E0,3.23126E5,3.9845776E7,2.9291827E8,1.1062555E7,5.4622736E7,3.1285328E7,3.513651E7,7.6202904E7,7.040112E7,0E0,0E0,0E0,0E0,0E0,0E0,0E0,0E0,0E0,0E0,0E0,0E0,0E0,0E0,0E0,0E0,0E0,0E0,0E0,0E0,0E0,0E0,0E0,0E0,0E0,0E0,0E0,0E0,0E0,0E0,0E0,0E0,0E0,0E0,0E0,0E0,0E0,0E0,0E0,0E0,0E0,0E0,0E0,0E0,0E0,0E0,0E0,0E0,0E0,0E0,0E0,0E0,0E0,0E0,0E0,0E0,0E0,0E0,0E0,0E0],"parents":[2147483647,0,0,1,1,2,2,3,3,4,4,5,5,6,6,7,7,8,8,9,9,10,10,11,11,12,12,13,13,14,14,15,15,16,16,17,17,18,18,19,19,20,20,21,21,22,22,23,23,24,24,25,25,26,26,27,27,28,28,29,29,30,30,31,31,32,32,33,33,34,34,35,35,36,36,37,37,38,38,39,39,40,40,41,41,42,42,43,43,44,44,45,45,46,46,47,47,48,48,49,49,51,51,52,52,54,54,55,55,56,56,57,57,58,58,59,59,60,60,61,61,62,62],"right_children":[2,4,6,8,10,12,14,16,18,20,22,24,26,28,30,32,34,36,38,40,42,44,46,48,50,52,54,56,58,60,62,64,66,68,70,72,74,76,78,80,82,84,86,88,90,92,94,96,98,100,-1,102,104,-1,106,108,110,112,114,116,118,120,122,-1,-1,-1,-1,-1,-1,-1,-1,-1,-1,-1,-1,-1,-1,-1,-1,-1,-1,-1,-1,-1,-1,-1,-1,-1,-1,-1,-1,-1,-1,-1,-1,-1,-1,-1,-1,-1,-1,-1,-1,-1,-1,-1,-1,-1,-1,-1,-1,-1,-1,-1,-1,-1,-1,-1,-1,-1,-1,-1,-1],"split_conditions":[7.840909E-1,3.128342E-1,2.5E-1,1.684492E-1,2.5E-1,8.8257575E-1,5E-1,7.8571427E-1,6.25E-1,5E-1,5.697674E-1,5E-1,9.811111E-1,3.5714287E-1,6.428572E-1,2.5E-1,9.2857146E-1,5.833334E-1,2.5E-1,3.5714287E-1,6.428572E-1,5E-1,9.166666E-1,3.5714287E-1,8.5E-1,8.356009E-1,6.25E-1,7.1428575E-2,6.9251335E-1,8.345959E-1,7.8571427E-1,2.1428573E-1,2.1428573E-1,4.5454547E-2,2.7666667E-1,4.211111E-1,5E-1,2.1428573E-1,5E-1,7.1428575E-2,6.531532E-1,7.260101E-1,7.8571427E-1,3.5714287E-1,6.428572E-1,5E-1,6.020408E-1,7.1428575E-2,4.684685E-1,7.1088433E-1,-7.836616E2,9.2857146E-1,3.5714287E-1,2.4341661E2,6.396396E-1,7.9591835E-1,2.1428573E-1,8.472222E-1,9.861111E-1,5.833334E-1,7.5E-1,7.8342247E-1,9.2857146E-1,4.6710285E1,8.871015E0,1.724724E1,-1.4400219E0,1.9648772E0,2.7053259E1,2.4776351E0,2.688925E1,2.1584959E1,3.7103848E1,-4.339661E0,1.927845E1,2.143671E2,1.6862589E1,-5.051819E0,1.0604144E1,-1.6112822E2,7.636615E1,-1.3009348E1,2.773196E1,8.02137E1,2.3438043E2,5.9354946E1,1.7653268E2,5.1772217E1,1.6662832E1,1.1576732E2,4.9146553E1,1.5494532E1,3.9596695E1,-6.521539E0,-7.080994E1,-1.3433224E2,1.7179984E2,-2.6141745E2,2.904108E1,1.1308336E2,2.2865807E2,1.6182217E2,-6.7427997E2,3.3006836E2,1.967462E2,-2.808058E2,-7.423805E2,-1.5272198E2,-6.7709564E2,5.4915546E2,9.488198E1,-9.730312E0,9.552115E1,-9.978226E1,4.9199856E1,1.494627E2,6.51488E1,2.494838E2,1.6631949E2,3.3507256E1,1.4408492E2,2.7516714E2,1.2182293E2],"split_indices":[8,0,2,0,2,8,3,3,1,3,5,3,6,3,3,2,3,2,2,3,3,3,2,3,6,7,1,3,0,8,3,3,3,0,6,6,3,3,3,3,4,8,3,3,3,3,7,3,4,7,0,3,3,0,4,7,3,8,8,2,2,0,3,0,0,0,0,0,0,0,0,0,0,0,0,0,0,0,0,0,0,0,0,0,0,0,0,0,0,0,0,0,0,0,0,0,0,0,0,0,0,0,0,0,0,0,0,0,0,0,0,0,0,0,0,0,0,0,0,0,0,0,0],"split_type":[0,0,0,0,0,0,0,0,0,0,0,0,0,0,0,0,0,0,0,0,0,0,0,0,0,0,0,0,0,0,0,0,0,0,0,0,0,0,0,0,0,0,0,0,0,0,0,0,0,0,0,0,0,0,0,0,0,0,0,0,0,0,0,0,0,0,0,0,0,0,0,0,0,0,0,0,0,0,0,0,0,0,0,0,0,0,0,0,0,0,0,0,0,0,0,0,0,0,0,0,0,0,0,0,0,0,0,0,0,0,0,0,0,0,0,0,0,0,0,0,0,0,0],"sum_hessian":[1.35978E5,1.14145E5,2.1833E4,8.1972E4,3.2173E4,2.939E3,1.8894E4,5.3249E4,2.8723E4,8.816E3,2.3357E4,1.694E3,1.245E3,8.496E3,1.0398E4,3.9768E4,1.3481E4,1.7708E4,1.1015E4,6.837E3,1.979E3,6.558E3,1.6799E4,1.16E3,5.34E2,1.237E3,8E0,5.42E3,3.076E3,3.53E3,6.868E3,1.6598E4,2.317E4,6.156E3,7.325E3,1.416E4,3.548E3,4.141E3,6.874E3,3.494E3,3.343E3,5.35E2,1.444E3,3.63E3,2.928E3,1.6203E4,5.96E2,6.11E2,5.49E2,5.32E2,2E0,5.9E2,6.47E2,2E0,6E0,5.5E1,5.365E3,1.503E3,1.573E3,1.589E3,1.941E3,5.452E3,1.416E3,2.18E2,1.638E4,2.375E3,2.0795E4,6.58E2,5.498E3,6.798E3,5.27E2,8.061E3,6.099E3,1.286E3,2.262E3,1.2E1,4.129E3,3.302E3,3.572E3,5.1E1,3.443E3,3.98E2,2.945E3,1.15E2,4.2E2,1.13E3,3.14E2,2.198E3,1.432E3,9.76E2,1.952E3,9.767E3,6.436E3,2.81E2,3.15E2,2.7E1,5.84E2,5E0,5.44E2,1.69E2,3.63E2,5.88E2,2E0,2.71E2,3.76E2,2E0,4E0,3.4E1,2.1E1,1.3E2,5.235E3,1.408E3,9.5E1,1.307E3,2.66E2,8.02E2,7.87E2,1.176E3,7.65E2,4.818E3,6.34E2,3.63E2,1.053E3],"tree_param":{"num_deleted":"0","num_feature":"9","num_nodes":"123","size_leaf_vector":"0"}},{"base_weights":[7.09676E1,4.5910233E1,2.2139587E2,2.3703705E1,9.246338E1,2.4219684E2,-4.279172E1,5.9822974E0,3.4346203E1,2.0535658E2,7.801747E1,2.3337508E2,8.036973E2,-1.473317E2,2.7444532E1,-1.5500736E1,1.4016852E1,1.6797495E1,4.5373287E1,9.460101E1,2.7576257E2,1.19929214E2,4.2834198E1,2.9974704E2,1.6878714E2,8.6729395E2,-2.223897E3,-1.2114231E3,-1.3386366E2,1.6134267E2,-6.588459E1,-8.954846E-1,-9.251575E1,5.3888763E1,8.573013E0,3.585497E1,-4.674138E1,9.185229E1,2.3660624E1,1.2840154E2,-1.8555784E0,2.0683568E2,5.171852E2,-2.7939102E1,1.5205054E2,-2.3886267E1,5.7595222E1,2.4038148E2,4.1157834E2,-1.1917037E3,1.7317365E2,1.333429E3,6.420941E2,8.581433E2,-5.591985E3,4.22686E1,-2.0743207E2,1.3488568E2,1.2722104E3,-2.1517769E2,6.7483993E0,3.2829357E1,-1.3368316E1,-6.137453E1,-1.0794224E2,-3.593818E1,5.9349773E1,-2.3288921E1,1.3164289E1,4.656969E1,-1.6215168E1,-2.0311106E1,-7.556587E1,5.3601048E1,1.19140785E2,2.4026084E0,5.846023E1,1.741436E2,8.771653E1,9.7527895E0,-9.9516077E2,3.1577396E2,1.0076101E2,8.038559E2,4.0099066E2,-9.428887E0,-1.3216022E2,1.7020782E2,2.9854517E1,-5.084536E1,3.27478E1,6.292353E1,-1.1199102E2,5.4530493E2,2.2420573E2,1.79841E3,4.0269046E2,-3.5023795E2,-2.3545938E3,2.2215881E3,1.6557942E2,-4.975022E2,1.403903E3,1.0426648E3,3.740912E2,1.4036836E3,-3.8923877E2,1.9631657E1,5.5687994E2,5.2063696E2,-2.2947185E2,-1.06116646E2,2.0649287E2,-6.016761E2,-1.3461467E2,1.5520391E1,-1.4747065E3],"categories":[],"categories_nodes":[],"categories_segments":[],"categories_sizes":[],"default_left":[1,1,1,1,1,1,1,1,1,1,1,1,1,1,1,1,1,1,1,1,1,1,1,1,1,1,1,0,1,1,1,1,1,1,1,1,1,1,1,1,1,1,1,1,1,1,1,1,1,1,1,1,1,1,0,1,1,1,0,1,1,0,0,0,0,0,0,0,0,0,0,0,0,0,0,0,0,0,0,0,0,0,0,0,0,0,0,0,0,0,0,0,0,0,0,0,0,0,0,0,0,0,0,0,0,0,0,0,0,0,0,0,0,0,0,0,0],"id":11,"left_children":[1,3,5,7,9,11,13,15,17,19,21,23,25,27,29,31,33,35,37,39,41,43,45,47,49,51,53,-1,55,57,59,61,63,65,67,69,71,73,75,77,79,81,83,85,87,89,91,93,95,97,99,101,103,105,-1,107,109,111,-1,113,115,-1,-1,-1,-1,-1,-1,-1,-1,-1,-1,-1,-1,-1,-1,-1,-1,-1,-1,-1,-1,-1,-1,-1,-1,-1,-1,-1,-1,-1,-1,-1,-1,-1,-1,-1,-1,-1,-1,-1,-1,-1,-1,-1,-1,-1,-1,-1,-1,-1,-1,-1,-1,-1,-1,-1,-1],"loss_changes":[5.125404E8,1.2049976E8,1.0670822E8,1.4884112E7,6.137712E7,8.896922E7,1.0415703E7,5.1116175E6,9.540876E6,3.3270752E7,4.921088E7,7.592058E7,5.545619E7,8.00663E6,1.0620239E7,9.06712E6,4.6777505E6,2.3043712E7,3.0555884E7,5.415569E6,4.332477E7,7.23473E7,1.7872688E7,5.7918656E7,5.3820976E7,2.7801584E7,6.7082224E7,0E0,7.316949E6,1.0085576E7,5.434098E6,2.851145E6,6.10689E5,1.272156E6,2.7746388E6,8.168102E6,3.343701E6,1.0057072E7,1.5268725E7,2.273774E6,4.990947E6,2.3449144E7,1.8963904E7,5.2441275E6,2.7758144E7,5.021793E6,1.3433756E7,2.8046496E7,3.661117E7,2.7552756E7,1.389527E8,1.205336E7,1.9577816E7,3.2683562E6,0E0,1.9344888E6,6.505972E6,5.923978E6,0E0,5.0255535E6,4.4153035E6,0E0,0E0,0E0,0E0,0E0,0E0,0E0,0E0,0E0,0E0,0E0,0E0,0E0,0E0,0E0,0E0,0E0,0E0,0E0,0E0,0E0,0E0,0E0,0E0,0E0,0E0,0E0,0E0,0E0,0E0,0E0,0E0,0E0,0E0,0E0,0E0,0E0,0E0,0E0,0E0,0E0,0E0,0E0,0E0,0E0,0E0,0E0,0E0,0E0,0E0,0E0,0E0,0E0,0E0,0E0,0E0],"parents":[2147483647,0,0,1,1,2,2,3,3,4,4,5,5,6,6,7,7,8,8,9,9,10,10,11,11,12,12,13,13,14,14,15,15,16,16,17,17,18,18,19,19,20,20,21,21,22,22,23,23,24,24,25,25,26,26,28,28,29,29,30,30,31,31,32,32,33,33,34,34,35,35,36,36,37,37,38,38,39,39,40,40,41,41,42,42,43,43,44,44,45,45,46,46,47,47,48,48,49,49,50,50,51,51,52,52,53,53,55,55,56,56,57,57,59,59,60,60],"right_children":[2,4,6,8,10,12,14,16,18,20,22,24,26,28,30,32,34,36,38,40,42,44,46,48,50,52,54,-1,56,58,60,62,64,66,68,70,72,74,76,78,80,82,84,86,88,90,92,94,96,98,100,102,104,106,-1,108,110,112,-1,114,116,-1,-1,-1,-1,-1,-1,-1,-1,-1,-1,-1,-1,-1,-1,-1,-1,-1,-1,-1,-1,-1,-1,-1,-1,-1,-1,-1,-1,-1,-1,-1,-1,-1,-1,-1,-1,-1,-1,-1,-1,-1,-1,-1,-1,-1,-1,-1,-1,-1,-1,-1,-1,-1,-1,-1,-1],"split_conditions":[7.9671717E-1,4.7959185E-1,9.166666E-1,1.6999999E-1,8.3333336E-2,9.962121E-1,5E-1,5E-1,5E-1,5.744444E-1,6.25E-1,6.24031E-1,9.8777777E-1,7.1428575E-2,6.25E-1,3.5714287E-1,8.3333336E-2,3.5714287E-1,6.428572E-1,8.873874E-1,5E-1,3.75E-1,6.711712E-1,8.287982E-1,7.1428575E-2,3.5714287E-1,7.364341E-1,-3.6342694E2,8.2196975E-1,9.544444E-1,8.623737E-1,2.1428573E-1,8.3333336E-2,6.333333E-2,9.888889E-2,5.833334E-1,2.5E-1,5.189394E-1,7.8571427E-1,6.25E-1,8.5714287E-1,3.5714287E-1,6.428572E-1,5.8777773E-1,7.5E-1,8.75E-1,9.166666E-1,8.3333336E-2,2.1428573E-1,8.0045354E-1,2.1428573E-1,9.410431E-1,5.833334E-1,9.8663104E-1,-1.6775956E3,7.2555554E-1,2.1428573E-1,7.211111E-1,3.8166315E2,6.4341086E-1,9.988662E-1,9.848807E0,-4.0104947E0,-1.841236E1,-3.238267E1,-1.0781454E1,1.7804934E1,-6.9866767E0,3.949287E0,1.3970908E1,-4.8645506E0,-6.093332E0,-2.2669762E1,1.6080315E1,3.5742237E1,7.207825E-1,1.753807E1,5.2243084E1,2.631496E1,2.925837E0,-2.9854825E2,9.473219E1,3.0228304E1,2.4115678E2,1.202972E2,-2.8286662E0,-3.9648067E1,5.106235E1,8.956355E0,-1.5253609E1,9.82434E0,1.887706E1,-3.359731E1,1.6359149E2,6.726173E1,5.39523E2,1.20807144E2,-1.0507139E2,-7.063782E2,6.6647644E2,4.967383E1,-1.4925067E2,4.211709E2,3.1279944E2,1.1222736E2,4.211051E2,-1.1677164E2,5.8894973E0,1.67064E2,1.561911E2,-6.884156E1,-3.1834995E1,6.1947865E1,-1.8050284E2,-4.0384403E1,4.6561174E0,-4.42412E2],"split_indices":[8,7,2,6,2,8,3,3,3,6,1,5,6,3,1,3,2,3,3,4,3,1,4,7,3,3,5,0,8,6,8,3,2,6,6,2,2,8,3,1,3,3,3,6,2,1,2,2,3,7,3,7,2,0,0,6,3,6,0,5,7,0,0,0,0,0,0,0,0,0,0,0,0,0,0,0,0,0,0,0,0,0,0,0,0,0,0,0,0,0,0,0,0,0,0,0,0,0,0,0,0,0,0,0,0,0,0,0,0,0,0,0,0,0,0,0,0],"split_type":[0,0,0,0,0,0,0,0,0,0,0,0,0,0,0,0,0,0,0,0,0,0,0,0,0,0,0,0,0,0,0,0,0,0,0,0,0,0,0,0,0,0,0,0,0,0,0,0,0,0,0,0,0,0,0,0,0,0,0,0,0,0,0,0,0,0,0,0,0,0,0,0,0,0,0,0,0,0,0,0,0,0,0,0,0,0,0,0,0,0,0,0,0,0,0,0,0,0,0,0,0,0,0,0,0,0,0,0,0,0,0,0,0,0,0,0,0],"sum_hessian":[1.35978E5,1.16563E5,1.9415E4,7.8919E4,3.7644E4,1.7998E4,1.417E3,2.9612E4,4.9307E4,4.269E3,3.3375E4,1.7721E4,2.77E2,5.69E2,8.48E2,8.06E3,2.1552E4,1.9028E4,3.0279E4,1.66E3,2.609E3,1.523E4,1.8145E4,8.738E3,8.983E3,2.72E2,5E0,6E0,5.63E2,3.48E2,5E2,6.776E3,1.284E3,2.588E3,1.8964E4,1.4638E4,4.39E3,9.64E3,2.0639E4,1.229E3,4.31E2,2.031E3,5.78E2,2.718E3,1.2512E4,3.287E3,1.4858E4,5.71E3,3.028E3,2.8E1,8.955E3,8.7E1,1.85E2,3E0,2E0,1.66E2,3.97E2,3.41E2,7E0,1.63E2,3.37E2,1.829E3,4.947E3,4.27E2,8.57E2,1.48E2,2.44E3,2.388E3,1.6576E4,1.214E4,2.498E3,2.291E3,2.099E3,4.015E3,5.625E3,1.2813E4,7.826E3,5.77E2,6.52E2,4.27E2,4E0,1.001E3,1.03E3,1.65E2,4.13E2,2.309E3,4.09E2,1.0893E4,1.619E3,2.227E3,1.06E3,1.4406E4,4.52E2,2.86E2,5.424E3,1.8E1,3.01E3,1.7E1,1.1E1,3.2E1,8.923E3,3E0,8.4E1,7.3E1,1.12E2,2E0,1E0,1.6E2,6E0,1.1E1,3.86E2,7.8E1,2.63E2,2.7E1,1.36E2,3.36E2,1E0],"tree_param":{"num_deleted":"0","num_feature":"9","num_nodes":"117","size_leaf_vector":"0"}},{"base_weights":[4.967764E1,3.1874046E1,1.6087772E2,1.2383556E1,5.9803402E1,2.8709747E2,1.1735492E2,-5.8487573E2,1.2703637E1,-3.5163818E2,6.1517284E1,1.944509E2,4.4128088E2,2.153099E2,7.945189E1,-2.3699397E2,-5.9798346E2,2.3584482E1,-1.8258215E0,1.8702164E3,-3.835267E2,7.7812805E2,5.7369827E1,3.3766058E2,1.7531779E0,7.3010535E2,3.66808E2,8.372037E2,2.0568617E2,5.7941727E1,3.2446924E2,-2.8302446E1,2.5894278E1,6.677319E-1,-6.2849667E1,3.040662E3,-2.3533752E2,-4.5121344E2,8.160153E1,2.493264E3,5.588299E2,3.595368E1,8.865584E1,6.776058E2,2.4656096E2,-3.0525412E1,9.3328754E2,5.1730286E2,9.988265E2,3.214577E2,9.969469E2,-8.816722E2,1.4972894E3,1.1168351E2,2.625368E2,3.8408867E1,3.126109E2,6.3715497E2,1.6839261E2,-1.6564299E1,-5.33684E1,1.8540554E1,4.269159E1,5.698711E-1,1.3893689E3,-5.4165737E1,-1.3123643E2,-2.8754025E2,-5.623238E2,-1.2992863E2,2.0123096E2,7.096485E2,2.8089727E3,8.165506E2,-4.6776614E2,6.642201E1,-6.8940253E0,1.800379E2,4.7418503E1,7.000734E2,-5.6825574E2,1.7486682E2,7.72858E2,1.6856487E1,-3.0990903E2,1.5929113E3,6.5676337E2,1.2045668E3,4.690797E2,1.0719071E3,-7.7251605E2,6.684471E2,2.636483E2,-6.909163E2,1.040209E3,-2.3446194E2,-1.5804761E3,1.9477826E3,7.633942E2,2.2478423E2,-1.00377525E2,4.3652744E2,1.6474419E2,8.135947E1,-4.8746872E1,8.811726E1,4.898922E2,4.9024567E2,1.1656812E3,-1.9963493E2,5.147886E2],"categories":[],"categories_nodes":[],"categories_segments":[],"categories_sizes":[],"default_left":[1,1,1,1,1,1,1,1,1,1,1,1,1,1,1,0,0,1,1,1,1,1,1,1,1,1,1,1,1,1,1,1,1,1,1,0,0,1,1,1,1,1,1,1,1,1,1,1,1,1,1,1,1,1,1,1,1,1,1,0,0,0,0,0,0,0,0,0,0,0,0,0,0,0,0,0,0,0,0,0,0,0,0,0,0,0,0,0,0,0,0,0,0,0,0,0,0,0,0,0,0,0,0,0,0,0,0,0,0,0,0],"id":12,"left_children":[1,3,5,7,9,11,13,15,17,19,21,23,25,27,29,-1,-1,31,33,35,37,39,41,43,45,47,49,51,53,55,57,59,61,63,65,-1,-1,67,69,71,73,75,77,79,81,83,85,87,89,91,93,95,97,99,101,103,105,107,109,-1,-1,-1,-1,-1,-1,-1,-1,-1,-1,-1,-1,-1,-1,-1,-1,-1,-1,-1,-1,-1,-1,-1,-1,-1,-1,-1,-1,-1,-1,-1,-1,-1,-1,-1,-1,-1,-1,-1,-1,-1,-1,-1,-1,-1,-1,-1,-1,-1,-1,-1,-1],"loss_changes":[2.6920077E8,6.3805496E7,1.030561E8,1.3205507E7,3.399421E7,6.863725E7,5.1798624E7,2.6999E4,1.0908762E7,1.4887606E7,1.4255134E8,8.298113E7,3.855699E7,2.3127168E7,5.3022132E7,0E0,0E0,4.729344E6,4.4962485E6,8.108892E6,6.270456E6,1.0241749E8,3.1959056E7,5.325424E7,3.860652E7,2.05844E7,4.074467E7,6.826184E7,2.0465344E7,4.601627E7,3.952069E7,4.9400712E5,4.665158E6,3.857253E6,6.81776E5,0E0,0E0,2.984448E6,6.8408175E5,1.54628E7,6.5467416E7,3.6972172E7,7.303722E7,1.0586768E7,5.125639E7,1.6433243E7,6.797116E6,6.328504E6,2.1799088E7,2.6743264E7,7.728672E6,7.31808E6,1.2729512E7,3.4727784E7,4.057693E7,3.217842E7,2.6184064E7,2.0392784E7,6.932618E7,0E0,0E0,0E0,0E0,0E0,0E0,0E0,0E0,0E0,0E0,0E0,0E0,0E0,0E0,0E0,0E0,0E0,0E0,0E0,0E0,0E0,0E0,0E0,0E0,0E0,0E0,0E0,0E0,0E0,0E0,0E0,0E0,0E0,0E0,0E0,0E0,0E0,0E0,0E0,0E0,0E0,0E0,0E0,0E0,0E0,0E0,0E0,0E0,0E0,0E0,0E0,0E0],"parents":[2147483647,0,0,1,1,2,2,3,3,4,4,5,5,6,6,7,7,8,8,9,9,10,10,11,11,12,12,13,13,14,14,17,17,18,18,19,19,20,20,21,21,22,22,23,23,24,24,25,25,26,26,27,27,28,28,29,29,30,30,31,31,32,32,33,33,34,34,37,37,38,38,39,39,40,40,41,41,42,42,43,43,44,44,45,45,46,46,47,47,48,48,49,49,50,50,51,51,52,52,53,53,54,54,55,55,56,56,57,57,58,58],"right_children":[2,4,6,8,10,12,14,16,18,20,22,24,26,28,30,-1,-1,32,34,36,38,40,42,44,46,48,50,52,54,56,58,60,62,64,66,-1,-1,68,70,72,74,76,78,80,82,84,86,88,90,92,94,96,98,100,102,104,106,108,110,-1,-1,-1,-1,-1,-1,-1,-1,-1,-1,-1,-1,-1,-1,-1,-1,-1,-1,-1,-1,-1,-1,-1,-1,-1,-1,-1,-1,-1,-1,-1,-1,-1,-1,-1,-1,-1,-1,-1,-1,-1,-1,-1,-1,-1,-1,-1,-1,-1,-1,-1,-1],"split_conditions":[6.811111E-1,4.2777777E-1,4.166667E-1,7.1428575E-2,7.1428575E-2,5E-1,6.085271E-1,6.531532E-1,4.166667E-1,6.25E-1,2.1428573E-1,3.5714287E-1,6.428572E-1,2.1428573E-1,9.2857146E-1,-7.10982E1,-1.7939505E2,3.75E-1,9.166666E-1,2.8609627E-1,7.5E-1,2.5E-1,5E-1,8.3333336E-2,9.962121E-1,7.4333334E-1,7.620321E-1,7.1428575E-2,5E-1,7.8571427E-1,3.5714287E-1,2.5E-1,5.290404E-1,5.534759E-1,3.7444443E-1,9.1219867E2,-7.060126E1,7.882883E-1,6.589147E-1,3.342246E-1,6.7687076E-1,3.5714287E-1,6.428572E-1,9.011111E-1,9.2297983E-1,8.718821E-1,5.813954E-1,6.8333334E-1,8.6E-1,8.3333336E-2,4.72973E-1,6.9786096E-1,5.833334E-1,3.5714287E-1,6.428572E-1,6.428572E-1,8.573232E-1,8.75E-1,5E-1,-4.96929E0,-1.601052E1,5.562166E0,1.2807477E1,1.7096135E-1,4.168107E2,-1.6249722E1,-3.9370934E1,-8.626208E1,-1.6869714E2,-3.8978592E1,6.036929E1,2.1289456E2,8.4269183E2,2.449652E2,-1.4032985E2,1.9926605E1,-2.0682077E0,5.401137E1,1.4225552E1,2.1002203E2,-1.7047673E2,5.246005E1,2.318574E2,5.0569463E0,-9.297271E1,4.7787338E2,1.9702902E2,3.6137006E2,1.4072392E2,3.2157214E2,-2.3175482E2,2.0053413E2,7.909449E1,-2.072749E2,3.120627E2,-7.0338585E1,-4.7414285E2,5.843348E2,2.2901828E2,6.743527E1,-3.0113258E1,1.3095824E2,4.942326E1,2.440784E1,-1.4624063E1,2.643518E1,1.4696767E2,1.470737E2,3.4970435E2,-5.9890484E1,1.5443658E2],"split_indices":[6,6,2,3,3,3,5,4,2,8,3,3,3,3,7,0,0,1,2,0,2,2,3,2,8,6,0,3,3,3,3,2,8,0,6,0,0,4,5,0,7,3,3,6,8,7,5,6,6,2,4,0,2,3,3,3,8,1,3,0,0,0,0,0,0,0,0,0,0,0,0,0,0,0,0,0,0,0,0,0,0,0,0,0,0,0,0,0,0,0,0,0,0,0,0,0,0,0,0,0,0,0,0,0,0,0,0,0,0,0,0],"split_type":[0,0,0,0,0,0,0,0,0,0,0,0,0,0,0,0,0,0,0,0,0,0,0,0,0,0,0,0,0,0,0,0,0,0,0,0,0,0,0,0,0,0,0,0,0,0,0,0,0,0,0,0,0,0,0,0,0,0,0,0,0,0,0,0,0,0,0,0,0,0,0,0,0,0,0,0,0,0,0,0,0,0,0,0,0,0,0,0,0,0,0,0,0,0,0,0,0,0,0,0,0,0,0,0,0,0,0,0,0,0,0],"sum_hessian":[1.35978E5,1.17213E5,1.8765E4,6.9037E4,4.8176E4,4.81E3,1.3955E4,3.6E1,6.9001E4,1.99E2,4.7977E4,3.006E3,1.804E3,3.892E3,1.0063E4,2E0,3.4E1,3.9454E4,2.9547E4,2E0,1.97E2,2.75E2,4.7702E4,1.724E3,1.282E3,3.68E2,1.436E3,5.8E1,3.834E3,9.252E3,8.11E2,1.681E3,3.7773E4,2.8388E4,1.159E3,1E0,1E0,1.72E2,2.5E1,3E1,2.45E2,2.8319E4,1.9383E4,3.63E2,1.361E3,1.24E3,4.2E1,2.07E2,1.61E2,1.341E3,9.5E1,1.6E1,4.2E1,1.446E3,2.388E3,8.594E3,6.58E2,2.69E2,5.42E2,1.146E3,5.35E2,2.6273E4,1.15E4,2.8387E4,1E0,1.03E3,1.29E2,7.1E1,1.01E2,9E0,1.6E1,5E0,2.5E1,1.96E2,4.9E1,1.655E4,1.1769E4,6.026E3,1.3357E4,3.57E2,6E0,1.199E3,1.62E2,1.061E3,1.79E2,1.1E1,3.1E1,1.2E1,1.95E2,1.55E2,6E0,1.9E2,1.151E3,2E0,9.3E1,9E0,7E0,2.5E1,1.7E1,9.43E2,5.03E2,8.58E2,1.53E3,5.757E3,2.837E3,2.91E2,3.67E2,2.12E2,5.7E1,2.63E2,2.79E2],"tree_param":{"num_deleted":"0","num_feature":"9","num_nodes":"111","size_leaf_vector":"0"}},{"base_weights":[3.481192E1,1.7750761E1,9.555154E1,5.282102E1,1.1774259E1,1.229378E2,-6.459193E0,3.9199585E1,1.6383388E2,5.892428E0,3.3589733E1,7.222331E1,1.7681393E2,-9.789694E0,1.097153E3,3.9404003E1,-1.387624E3,1.9316675E2,5.482334E0,3.4458056E-1,2.6308165E1,3.444476E2,3.0062729E1,1.606186E2,-5.3353413E1,3.1070865E2,1.1731669E2,-1.362965E2,1.7265036E1,1.5213931E3,-7.559945E1,2.5122175E1,5.6539093E1,1.5562045E2,3.305314E2,-5.2434503E2,2.4015268E1,8.992165E0,-1.7716007E1,5.6236927E1,2.0511422E0,-2.2990926E2,9.886299E2,6.7150566E1,1.501188E1,1.4166605E2,6.8649646E2,-5.0902374E1,-1.7957722E3,2.9198145E2,9.456373E2,6.609022E1,2.942304E2,-5.2683246E2,-1.1107865E2,-4.0876442E1,7.266369E1,1.7253519E3,1.9842676E2,-6.694509E2,7.4140234E2,4.844043E0,3.9270855E1,7.221737E1,2.7383183E1,2.2337779E2,8.512125E1,5.7271027E2,2.4187799E2,3.7979736E1,-5.9938306E2,2.1973383E2,-9.899826E0,-6.102881E0,3.526086E1,-6.3756986E0,-3.291292E1,4.5045357E1,1.7035379E2,-1.0464743E1,3.2743168E1,-3.205315E2,4.9863358E0,1.228019E3,-1.9674289E2,4.5992676E1,1.6699174E2,6.023175E1,-2.1158804E1,-5.526341E2,1.5191125E2,5.3215497E2,1.1916321E3,-6.678243E1,2.6146262E2,-2.76569E2,-5.4554956E3,2.2401027E2,4.0048154E2,6.936711E2,1.2635072E3,5.6674843E1,1.365408E3,6.043063E2,1.91039E2,-2.9482083E2,-9.302358E2,-1.2839711E2,1.20802216E2,3.1535513E1,-1.9560971E2,1.9908607E2,-4.536318E0,2.1802979E2,1.8425603E3,-6.606494E1,3.6370508E2,-2.060542E2,-7.5523175E2],"categories":[],"categories_nodes":[],"categories_segments":[],"categories_sizes":[],"default_left":[1,1,1,1,1,1,1,1,1,1,1,1,1,1,1,1,0,1,1,1,1,1,1,1,1,1,1,1,1,1,1,1,1,1,1,1,1,1,1,1,1,1,1,1,1,1,1,1,1,1,1,1,1,1,1,1,1,1,1,1,0,0,0,0,0,0,0,0,0,0,0,0,0,0,0,0,0,0,0,0,0,0,0,0,0,0,0,0,0,0,0,0,0,0,0,0,0,0,0,0,0,0,0,0,0,0,0,0,0,0,0,0,0,0,0,0,0,0,0],"id":13,"left_children":[1,3,5,7,9,11,13,15,17,19,21,23,25,27,29,31,-1,33,35,37,39,41,43,45,47,49,51,53,55,57,59,61,63,65,67,69,71,73,75,77,79,81,83,85,87,89,91,93,95,97,99,101,103,105,107,109,111,113,115,117,-1,-1,-1,-1,-1,-1,-1,-1,-1,-1,-1,-1,-1,-1,-1,-1,-1,-1,-1,-1,-1,-1,-1,-1,-1,-1,-1,-1,-1,-1,-1,-1,-1,-1,-1,-1,-1,-1,-1,-1,-1,-1,-1,-1,-1,-1,-1,-1,-1,-1,-1,-1,-1,-1,-1,-1,-1,-1,-1],"loss_changes":[1.4091171E8,2.2250456E7,8.330592E7,2.3366956E7,1.1638608E7,6.421811E7,2.321101E7,4.070688E6,7.84418E6,8.09198E6,2.1108458E7,1.3444539E8,9.076422E7,2.1544242E7,9.56806E6,3.36789E6,0E0,7.298048E6,2.614695E6,8.774221E6,1.1082736E7,8.014525E7,1.0631094E7,7.074627E7,2.127934E7,4.141181E7,7.151216E7,1.0863438E7,1.6706866E7,3.435272E6,3.4073988E6,2.154781E6,2.858642E6,5.335822E6,6.409822E6,4.025265E5,1.7080934E6,1.5064282E7,3.1346135E6,8.720348E6,3.239777E6,2.449575E6,2.918568E7,1.160645E7,2.2164112E7,4.889509E7,1.8622832E7,2.4809412E7,3.7410224E7,2.503648E7,7.132792E6,7.481651E7,5.658352E7,5.996562E6,4.204011E6,2.8364854E7,2.5922952E7,1.718316E6,1.551724E5,3.3835E3,0E0,0E0,0E0,0E0,0E0,0E0,0E0,0E0,0E0,0E0,0E0,0E0,0E0,0E0,0E0,0E0,0E0,0E0,0E0,0E0,0E0,0E0,0E0,0E0,0E0,0E0,0E0,0E0,0E0,0E0,0E0,0E0,0E0,0E0,0E0,0E0,0E0,0E0,0E0,0E0,0E0,0E0,0E0,0E0,0E0,0E0,0E0,0E0,0E0,0E0,0E0,0E0,0E0,0E0,0E0,0E0,0E0,0E0,0E0],"parents":[2147483647,0,0,1,1,2,2,3,3,4,4,5,5,6,6,7,7,8,8,9,9,10,10,11,11,12,12,13,13,14,14,15,15,17,17,18,18,19,19,20,20,21,21,22,22,23,23,24,24,25,25,26,26,27,27,28,28,29,29,30,30,31,31,32,32,33,33,34,34,35,35,36,36,37,37,38,38,39,39,40,40,41,41,42,42,43,43,44,44,45,45,46,46,47,47,48,48,49,49,50,50,51,51,52,52,53,53,54,54,55,55,56,56,57,57,58,58,59,59],"right_children":[2,4,6,8,10,12,14,16,18,20,22,24,26,28,30,32,-1,34,36,38,40,42,44,46,48,50,52,54,56,58,60,62,64,66,68,70,72,74,76,78,80,82,84,86,88,90,92,94,96,98,100,102,104,106,108,110,112,114,116,118,-1,-1,-1,-1,-1,-1,-1,-1,-1,-1,-1,-1,-1,-1,-1,-1,-1,-1,-1,-1,-1,-1,-1,-1,-1,-1,-1,-1,-1,-1,-1,-1,-1,-1,-1,-1,-1,-1,-1,-1,-1,-1,-1,-1,-1,-1,-1,-1,-1,-1,-1,-1,-1,-1,-1,-1,-1,-1,-1],"split_conditions":[6.38322E-1,8.3333336E-2,7.5E-1,5.744444E-1,5.3854877E-1,5E-1,9.811111E-1,7.7020204E-1,8.139535E-1,7.8571427E-1,2.1428573E-1,3.5714287E-1,6.428572E-1,7.162162E-1,9.166666E-1,5.2146465E-1,-4.1628723E2,5E-1,6.982323E-1,6.428572E-1,9.2857146E-1,7.1428575E-2,4.251337E-1,9.195011E-1,9.9E-1,9.330808E-1,7.8571427E-1,5.27027E-1,5E-1,6.428572E-1,9.886364E-1,5E-1,6.8992245E-1,3.5714287E-1,6.428572E-1,5.7777774E-1,7.1843433E-1,5E-1,4.166667E-1,1.9518715E-1,5.1641417E-1,5.833334E-1,5.833334E-1,3.8235295E-1,4.166667E-1,7.1428575E-2,8.139535E-1,9.861111E-1,7.477478E-1,5.748663E-1,8.8111115E-1,9.7165537E-1,9.2857146E-1,8.219697E-1,9.852608E-1,3.5714287E-1,6.428572E-1,6.081081E-1,9.8395723E-1,9.705882E-1,2.2242072E2,1.4532129E0,1.1781257E1,2.166521E1,8.214955E0,6.701334E1,2.5536375E1,1.7181308E2,7.25634E1,1.1393921E1,-1.7981493E2,6.592015E1,-2.9699478E0,-1.8308643E0,1.05782585E1,-1.9127096E0,-9.873877E0,1.3513608E1,5.110614E1,-3.139423E0,9.82295E0,-9.6159454E1,1.4959008E0,3.6840573E2,-5.902287E1,1.3797803E1,5.0097527E1,1.8069527E1,-6.3476415E0,-1.6579024E2,4.557338E1,1.596465E2,3.5748962E2,-2.003473E1,7.843879E1,-8.29707E1,-1.6366488E3,6.720309E1,1.2014446E2,2.0810133E2,3.790522E2,1.7002453E1,4.096224E2,1.8129189E2,5.7311703E1,-8.844625E1,-2.7907074E2,-3.8519135E1,3.6240665E1,9.460654E0,-5.8682915E1,5.9725826E1,-1.3608954E0,6.5408936E1,5.527681E2,-1.9819483E1,1.0911153E2,-6.181626E1,-2.2656953E2],"split_indices":[7,2,2,6,7,3,6,8,5,3,3,3,3,4,2,8,0,3,8,3,3,3,0,7,6,8,3,4,3,3,8,3,5,3,3,6,8,3,2,0,8,2,2,0,2,3,5,8,4,0,6,7,3,8,7,3,3,4,0,0,0,0,0,0,0,0,0,0,0,0,0,0,0,0,0,0,0,0,0,0,0,0,0,0,0,0,0,0,0,0,0,0,0,0,0,0,0,0,0,0,0,0,0,0,0,0,0,0,0,0,0,0,0,0,0,0,0,0,0],"split_type":[0,0,0,0,0,0,0,0,0,0,0,0,0,0,0,0,0,0,0,0,0,0,0,0,0,0,0,0,0,0,0,0,0,0,0,0,0,0,0,0,0,0,0,0,0,0,0,0,0,0,0,0,0,0,0,0,0,0,0,0,0,0,0,0,0,0,0,0,0,0,0,0,0,0,0,0,0,0,0,0,0,0,0,0,0,0,0,0,0,0,0,0,0,0,0,0,0,0,0,0,0,0,0,0,0,0,0,0,0,0,0,0,0,0,0,0,0,0,0],"sum_hessian":[1.35978E5,1.0616E5,2.9818E4,1.5456E4,9.0704E4,2.3507E4,6.311E3,1.3768E4,1.688E3,7.1443E4,1.9261E4,1.211E4,1.1397E4,6.293E3,1.8E1,1.3767E4,1E0,1.424E3,2.64E2,5.6178E4,1.5265E4,2.15E2,1.9046E4,7.107E3,5.003E3,3.505E3,7.892E3,1.108E3,5.185E3,1.3E1,5E0,7.51E3,6.257E3,1.12E3,3.04E2,8E0,2.56E2,3.7989E4,1.8189E4,6.833E3,8.432E3,1.14E2,1.01E2,5.497E3,1.3549E4,6.861E3,2.46E2,4.997E3,6E0,3.406E3,9.9E1,6.121E3,1.771E3,6.6E1,1.042E3,2.53E3,2.655E3,1.1E1,2E0,3E0,2E0,3.087E3,4.423E3,4.068E3,2.189E3,5.7E2,5.5E2,8E1,2.24E2,1E0,7E0,3.7E1,2.19E2,2.4126E4,1.3863E4,1.0417E4,7.772E3,6.224E3,6.09E2,5.99E3,2.442E3,8.2E1,3.2E1,8.4E1,1.7E1,4.537E3,9.6E2,6.021E3,7.528E3,9.9E1,6.762E3,1.9E2,5.6E1,4.756E3,2.41E2,5E0,1E0,2.096E3,1.31E3,5.7E1,4.2E1,6.078E3,4.3E1,4.41E2,1.33E3,4.3E1,2.3E1,9.7E2,7.2E1,1.724E3,8.06E2,1.006E3,1.649E3,1E0,1E1,1E0,1E0,1E0,2E0],"tree_param":{"num_deleted":"0","num_feature":"9","num_nodes":"119","size_leaf_vector":"0"}},{"base_weights":[2.4373299E1,1.7564272E1,1.12926025E2,-9.8036804E1,1.9904806E1,3.960119E2,9.741569E1,-6.5200874E1,-3.8763873E2,8.74735E0,4.577092E1,4.198372E2,-1.1336357E3,8.136846E1,3.8392862E2,2.2599901E2,-7.0702995E1,-1.3287704E3,-3.3159128E2,-3.231548E1,1.0657605E1,8.872278E1,1.743881E1,3.8809622E2,1.4871798E3,6.543623E2,-1.4825443E3,-1.0858519E3,8.4580505E1,7.5187274E2,2.9654797E2,5.330511E1,9.532849E2,-3.442741E1,-1.1820055E2,-2.6808505E2,-1.726236E3,-1.7051994E2,-6.6176984E2,-4.623225E2,-3.1522783E1,1.3206866E1,-1.7802765E1,7.7461975E1,2.6771582E2,3.309088E1,-3.674107E1,4.2697824E2,-5.859627E2,1.6642701E3,2.830918E2,-1.9059473E3,5.289365E2,-4.8492368E2,-2.2270928E3,1.8727269E3,7.7552734E1,7.9603925E2,-1.6557212E3,2.137918E2,6.3661847E2,2.479893E2,4.474264E0,1.27579506E2,1.2072568E3,-4.9943783E1,1.2231351E1,-4.0350998E2,-1.0433642E2,-3.633807E2,-8.3427734E1,-2.0263069E2,-2.0818086E3,1.394857E3,-2.0835217E2,-8.919235E2,-2.9585904E2,-5.282803E2,-3.3288086E1,-2.6455093E1,-7.852838E1,7.521855E0,2.7185677E1,-1.8145613E1,1.1554106E3,9.3015976E1,-1.3637686E1,7.5786835E2,1.2553113E2,3.1681515E1,8.49843E2,-2.6404875E1,-3.0774185E2,2.0562832E3,3.9765054E2,